solver_type L2R_L2LOSS_SVC
nr_class 2
label 0 1
nr_feature 4771
bias -1.000000000000000
w
-0.5971708925784194 
-0.5601424022334195 
0.7106874866281836 
0.1032441977245659 
0.004876564991718305 
0.5618212561990544 
0.005116331467133346 
0.008785770497652196 
0.006737536593000289 
0.3908029824494190 
0.06335282987877171 
0.04218343860096360 
0.1082976612885980 
0.3007059501568866 
0.08221437500298110 
-0.09890792031448346 
1.094960388241098 
0.07403255387055697 
-0.03089612796554128 
-0.03135142739299998 
0.1388945210210650 
0.2003960575754631 
-0.06633542098509802 
-0.1062319602574524 
-0.05512564082451479 
-0.2591389750199487 
-0.3272706360297606 
0.01588655936015783 
0.1755026512832558 
0.02281305588623771 
-0.3289018266994391 
-0.1809063981282717 
-0.2469738798323082 
0.09259519497151478 
-0.3543882913328373 
0.3846757014514484 
0.03397074501224220 
-0.3981558164172986 
-0.2155178491407274 
0.003074243392387336 
0.3299870233618812 
0.04506116440582868 
-0.4409093093071765 
0.04789870436943348 
0.4638037539006088 
0.01162504098793472 
-0.07872695675821950 
-0.2892622136863541 
0.008390630270026374 
0.2700376193588471 
0.005257107437738492 
-0.3842882747773606 
0.3809196032641478 
0.09926934807166665 
0.2717193510850799 
-0.1987210142114528 
-0.2424850719839388 
0.1322717135049857 
-0.09067744678073865 
-0.1730941108628209 
0.3036272961074690 
0.04463002250183487 
-0.05834338878294526 
0.2152239875038581 
-0.2076898595550114 
0.04351994936369918 
0.1719607833362684 
0.2499827861039630 
-0.2496841467936978 
0.1611552700390734 
-0.02536292934838381 
0.5959274047297959 
0.3245883628163024 
0.2910892588845228 
-0.4439283216592897 
0.1678290943434577 
0.01200317064589698 
0.6212861835626698 
0.1738223967414026 
-0.07553226380850576 
-0.1842665333846151 
-0.06081126305941471 
0.4567587746210414 
-0.1405006331973699 
-0.6724102791773044 
0.09805030177113332 
-0.06896933969274902 
0.6004463401763916 
0.1204614782125974 
-0.1047990124148058 
0.2557154506537935 
0.1180442157611568 
0.05741320186634539 
0.7545782888703132 
0.7580117271957795 
0.1598749379481592 
0.01343461195130576 
0.001296534407279810 
0.1270082446966128 
-0.2295654691917978 
0.1415694616358135 
-0.09760592315636928 
0.2348497707432236 
-0.003674148079938465 
0.2486810564544628 
0.4797764997292572 
0.07779089305628399 
0.007736941138378652 
-0.03765524855541885 
-0.2286917521727410 
-0.06561202677629423 
0.3636064641765865 
-0.1366454241241620 
0.3121097558307092 
0.07325182918363354 
-0.1888291320002921 
0.01204223550151288 
0.04873220958788103 
0.1087473875859581 
0.5098536770553456 
-0.02950298606796925 
-0.03980228548235442 
0.2878361626184811 
-4.617839647469077e-05 
-0.007918065736741975 
-0.6189726855682455 
-0.007918065736741975 
0.2011042697340776 
0.7864547570391833 
0.1973313585785043 
0.001435737518358424 
0.1795450414243068 
0.01167564888229451 
0.3838626714325866 
0.02922939760919700 
0.2239165500736183 
0.5233618655451419 
0.7445318434168630 
1.295798651951858 
2.129894691178026e-05 
0.8000223748560412 
0.7507777840209054 
0.1238676843823324 
-0.02140640369709346 
-0.07782137387703551 
-0.3204701748606693 
0.2750594098061974 
-0.3309476203621918 
0.2011422279854071 
0.0002402889930665814 
0.1490087055740975 
1.059619445677191 
0.6967701646835922 
0.4234187474646862 
0.2461261262369233 
-0.7738897199818863 
-1.226226824500848 
0.02930742109987221 
-0.08886216080009851 
-0.2251791954230100 
-0.4669193860863957 
-0.01703890667283448 
-0.05273209077111628 
0.1238601813034826 
0.01616646246428649 
-0.04093104262210777 
-0.08461468525834638 
0.2265042506751937 
0.1350617987848888 
0.1847398608749949 
-0.01509001489381528 
0.001078656376578129 
0.1881516951781932 
0.08822618457707850 
0.1391717423210186 
0.02191606359460546 
0.02191606359460546 
0.1886181935064149 
-0.09792216846427904 
0.4944202717903731 
-0.01571722535950881 
0.6773705902096632 
0.01906475270242489 
0.0001324624671323464 
0.4929834516395026 
-0.1464914382583528 
0.7555022166331491 
0.1599096920587562 
0.5873313144927917 
0.2510457295655488 
-0.006663082771942376 
-0.03890754159268265 
0.005187020770532944 
0.2338970238909092 
0.06854877758700044 
0.002136521752846650 
-0.0001905614373343120 
-0.02138727032264653 
-0.1576646107452068 
0.1837181886401478 
0.6166699350278811 
0.1392447308299513 
0.005215670251910421 
-0.1511653722122114 
0.4881312800446419 
-0.3715467388441284 
-0.0002309829456620998 
-0.0002173325433209433 
0.1889453754453431 
0.05167799312149228 
0.04486598740378493 
-0.3274127678169159 
0.2486932478896069 
-0.2312871637744224 
0.08823619490774133 
0.07333080294616645 
-0.1349771904386742 
0.3060041941290269 
-0.2683098428020580 
0.5828066949240795 
-0.6348628228133608 
0.5717943564732757 
0.02147017360015698 
0.2214145121810999 
0.3469358215726215 
0.07823106781962048 
-0.2213809827266285 
0.02915467895150056 
0.05547194544013701 
-0.05935805147602277 
-0.01954982050758056 
0.004848265690865725 
0.0003882728556681401 
0.7955077019585249 
1.127887158246421 
0.005726154238516977 
0.05902990752819699 
-0.07355697676416795 
-0.09951814172418146 
0.5466727628693061 
0.2464222479762333 
0.9029387854854466 
0.0004482330980912246 
-0.5170619943913637 
0.3621051858605138 
0.4215843100489053 
0.5561221454097925 
0.1284617786038691 
0.3149888005644341 
-0.1814307830069756 
-5.416801825038016e-05 
0.1741844150576425 
0.2105069070438215 
0.2221443078981287 
-0.3642940396238805 
0.3214495626278970 
0.02267215441881227 
0.5937294503237842 
0.05161269075889678 
-0.4534588368858453 
0.1682789677123841 
0.1454925241260884 
0.4634224901082456 
0.1243231991360481 
-0.08609239485350740 
0.1032623575573139 
-0.2101937956750626 
-0.05113661519551678 
0.2550892257735608 
0.2640349088663365 
0.02402862587858982 
0.2141672232717627 
-0.1646106785768174 
0.8546528569883248 
0.2627432238392100 
0.2059339634480379 
0.09512075692771835 
0.04295821269153967 
0.4063133554821105 
0.2690134601062268 
0.05342283747892582 
0.02358436661536818 
0.3156029642799116 
0.1770700526856679 
-0.1270516971347013 
0.2843331978411928 
0.005447769209589476 
-0.3339584091130793 
0.3974128469430582 
3.904102243816180e-05 
0.3196375304516002 
3.904102243816180e-05 
0.4910674680261642 
0.01335926599890112 
-0.4709354603924334 
0.3622524393926848 
0.2708917228758189 
-0.4819415213617744 
0.4834494596805990 
0.2122389196706828 
-0.05959867820665710 
-0.3030228903011387 
-0.0002297530648790043 
0.003819356092329627 
0.04127097177994871 
0.1244414583051872 
0.2906993294256831 
0.04051432958516720 
0.1009591825437223 
-0.05737306359737902 
0.1537179083723338 
0.2898972512066405 
0.1774454425547979 
-0.7126219232277241 
0.08289286665374969 
2.541879738234245e-05 
0.2349628279424118 
-0.1658751312582912 
0.1447413678613861 
-0.1139965865510316 
0.02489022978400746 
0.01663987336433253 
0.0005590822307188681 
0.0005590822307188681 
-0.1006900877025118 
0.05078831624227743 
0.0005590822307188681 
0.3727609917200808 
-0.4164659542517553 
0.1119976953818516 
0.09902136670447560 
0.2069710727907207 
0.1594778511024648 
-0.1517936025587643 
-0.1517936025587643 
-0.08841466436863324 
-0.09906488256742199 
0.1377854767869867 
0.3759206587284435 
-0.04617564105665547 
-0.04617564105665547 
0.1157889213611615 
-0.07618686723119494 
0.3402176225776634 
-0.04009124618406821 
0.2206523993892400 
-0.007708562036500706 
-0.1083244508915894 
0.3808476758228400 
0.06631551145301443 
-1.762658183425490 
-0.1281111255728790 
0.2939511828807744 
-0.04009839730494685 
0.09181044276635457 
0.03040958123874810 
0.1435683723422069 
0.1520389081919006 
-0.09100784365192233 
0.07432042869499660 
0.4622408244750272 
0.1654063191425737 
-0.0002877299488201145 
-0.2417174220415816 
0.08171566486924159 
0.2961635999801303 
0.5406602105918135 
-0.0003314251647504840 
-0.0003314251647504840 
0.1820379146731214 
-0.1836744593959812 
0.08187931225885277 
-0.1007850712327348 
0.1784421030721108 
0.2159147717287528 
0.1784421030721108 
0.2445416786540982 
0.4068246718080862 
0.3620244893405532 
0.1859446220959513 
-0.5568171928769348 
-0.04397534786993114 
0.4583467359819249 
0.1819299656449061 
0.1832490683567273 
0.5541876369223351 
-0.05106868761591339 
-0.1615426956457943 
-0.1278142185970854 
1.213383721499539 
-0.1266177391154216 
-0.06387873476726573 
0.3102440361480366 
0.1279954586688453 
0.1550216959185136 
0.2978047731539691 
0.6204956986435828 
0.2396693255517317 
-0.6667950979444982 
-0.6639150411326948 
-0.3364148000409951 
0.7460362788398784 
0.05323926882650664 
0.04987183067474990 
-0.2795461904870908 
0.1406782720113903 
0.05442086841431677 
0.05328961267149840 
-0.04514520923732838 
0.3144305787988271 
0.02263949474392808 
0.04535830081841437 
0.5186205538377674 
1.400119342299586e-05 
0.04423052914605886 
0.9816128685755706 
-0.1286841847137537 
0.08417278540982871 
-0.1286841847137537 
-0.09931348658574021 
0.07354343682313218 
0.1257101126576942 
0.1093162108124309 
0.03093105231178397 
0.1548057894745573 
-0.3277929731045205 
-0.05719875037428394 
-0.4602999829690614 
0.2596325954723341 
0.9116575836756422 
-0.1128738572437939 
0.1333569226961635 
0.1708183315099717 
0.1067912572666858 
0.01114464642169640 
0.1910628495983394 
0.03365662909840684 
0.06892792895278345 
0.2117650739511469 
0.6306619618829301 
-0.2675561064909220 
0.5331812867078000 
0.6032913485399319 
-0.1655706527622427 
0.2614053535789973 
-0.08689503538540574 
0.02917817342582011 
0.02230800739530027 
0.03308338311727920 
0.02917817342582011 
0.08456541414542637 
0.3542664753775060 
0.3545061578136746 
-0.3590816074324877 
0.03682514848714508 
0.1351260491080017 
0.001068119997197642 
0.4626941789516716 
-0.5534040394497184 
-0.5763300010462580 
0.04740653072229738 
0.2638168884363692 
0.1143228355551034 
0.3219472086532620 
0.4999512350893415 
0.4011374556892652 
0.03052563728052959 
0.1160985942251737 
0.05938738337928422 
-0.2924778623656774 
-0.003719861434184893 
-0.1228189741714232 
0.08183763487532937 
0.1654782684408751 
0.001313423247089497 
0.1616172165801494 
0.1353428369826056 
-0.0003061248230343499 
0.1595756281056344 
0.004665571517800127 
-0.0003061248230343499 
-0.05976057192147567 
-0.02874850599341750 
0.3398688341797962 
0.05707895405649535 
0.05495760086406324 
0.2853595572006543 
0.1905321853756692 
0.0002414842157325194 
2.757391145836209e-05 
-0.2050578982420078 
0.7650779872082508 
0.0006154095908221642 
-0.3014441495703686 
0.4488048305704122 
0.001527972443050715 
0.03496840462679049 
0.02329297355081554 
0.08931139602028056 
0.02329297355081554 
-0.04091460812766858 
-0.1032776106603587 
-0.1270637580688650 
-4.741741433585417e-05 
0.04565422306531798 
0.004969232560004521 
0.5523994850659106 
0.03465149519032837 
0.8156047949495006 
0.03465149519032837 
0.03465149519032837 
0.01408832359604035 
0.03443619796803913 
0.3563521687734907 
0.06918502577780064 
0.07093770893286193 
-0.2908726808813111 
0.1305416810108587 
0.1593313743667460 
-0.0002887116154301477 
-5.371136518232944e-05 
0.1170005036009153 
-0.3541597403530700 
0.5396374899319413 
0.09434653393815422 
0.2692517377497706 
0.3654457020392901 
0.04384360245679819 
0.6869256178746272 
0.1967381397743766 
0.3356599716940631 
0.005269731327445014 
0.2165471829576730 
0.7494422996880387 
-0.8673941626085742 
-0.6162505344084933 
-0.09143251015324151 
0.7826140158314684 
0.6869861232535087 
-0.1391723387258189 
0.1916165834129791 
-0.4898750340847682 
0.01979778153733918 
0.1520207349641227 
-0.6884899021796874 
-0.3462886980042633 
0.06987698398034256 
0.0005550554453111044 
0.001068981547244562 
-0.07583136182188400 
0.008820517689376922 
0.06531388056322125 
0.06531388056322125 
0.06531388056322125 
0.3848876229620524 
0.06531388056322125 
0.1450552686517978 
0.05211782577077112 
-0.02741626376251528 
0.3147012182950759 
-0.2614078784996473 
0.1826979059865177 
0.0008493425588580314 
0.2443447848723986 
0.1388128456767083 
0.1093817643511191 
-0.002004971851037869 
0.03226158829057127 
0.04360589392899897 
0.1184048145619005 
0.1708988874612863 
-0.3878708362140711 
0.1323784396007565 
-0.1657583142668882 
0.1700075333371433 
0.1030264583009399 
-0.1749848945980841 
0.1137872910542115 
0.005389434480673909 
-0.3474887617032743 
0.2550083697026265 
0.001582546402478801 
0.07178367692786208 
0.1570555204993998 
0.1807433751930630 
0.1651066926191282 
0.07048772451075980 
0.2233716139064920 
0.1870477553150835 
-0.2129507542040588 
0.4155795318049720 
1.243359902934118 
-0.1486502503344010 
0.1580794661611053 
-0.3285572397592209 
0.02301996275607415 
0.1991417726553165 
0.1965364251321097 
0.01344441108429496 
0.7630641638617274 
-1.298104209833888 
0.01004090279771435 
0.06602434916947980 
0.0008163975439043027 
0.1419956102431086 
0.1538080069808002 
0.03026890998846697 
0.1237628917737181 
0.0009937185709680582 
0.0006750312222981667 
0.3771523407246691 
-0.2345127197607657 
0.3169266487001469 
0.04075833538068546 
0.2809786013144687 
0.008096386264597522 
0.01532482821953865 
-0.1707836118905951 
-0.09204228493384528 
0.07773732188281893 
0.8167955232929837 
0.07773732188281893 
1.155439105243855 
-0.4744884046742557 
0.1076686543245845 
0.1031278768090399 
-0.1431313901398380 
-0.07774258491687085 
-0.1203642001187066 
-0.05843596969182469 
0.01122394651793461 
0.1801534899698303 
0.1258551048419455 
0.1717781527250306 
0.07783867146332567 
-0.08587106413622995 
0.08145692085625349 
-0.1562717596183761 
-0.005377628980343451 
-0.005461020301916735 
-0.07477290250258857 
1.070881498015214 
0.1891565163522022 
0.1584108306506714 
-1.114264548516803 
-0.2117635090133044 
0.02544433287977011 
0.09208085516887593 
0.07212261192448714 
1.102513533141388 
0.0008123888570081095 
0.9913532080971396 
0.2311689271162380 
0.04637546870928009 
-0.02737592675296935 
-0.01002438591715664 
0.2164284835831831 
0.001864577885554335 
0.09616531148555565 
0.1579337783330125 
0.004073196873289481 
0.0002861481351324395 
0.7469345923034130 
0.001352310210273846 
0.3476954207115273 
-0.09698243202771586 
0.2682384299171795 
-0.5305872157929463 
0.1427832597729500 
-0.02679717895089631 
-0.06887664803956182 
0.01332702882121704 
-0.03930834975806716 
-1.383826537135023 
-0.4244075358486657 
0.1085564342919870 
0.2113443055209923 
0.03883125861830841 
0.1170893631523107 
-0.1560155029797306 
-0.0002366708899238228 
0.3615741875718951 
0.1136841985149806 
-0.02267867720913629 
-0.1088823406383391 
0.07640524211697289 
0.01510568063279487 
-0.3601751107194043 
-0.6781797697411002 
-0.5140849482090353 
0.001700268365545253 
0.006826824845276548 
0.02260149983872371 
-0.1157945250830810 
-0.01786359806379218 
0.3154185959934058 
-0.1002704210664353 
0.01304913449727790 
0.1892026494152871 
0.3155856149476056 
0.4452177531226274 
-0.03926748023301988 
-0.1436445900610542 
0.03655615824530496 
0.1554345768750144 
-0.5260126038557296 
0.0004915532011230286 
0.2074051969659198 
-0.1020865312441356 
-0.1020865312441356 
0.2600510359542397 
0.1077000597230670 
0.4250202272936061 
-0.1503990701156328 
0.7484747314011487 
0.008647276270039193 
0.002883020463489699 
0.2373949672716328 
0.001081322893600533 
-0.002040707382649070 
0.4111166228309207 
-0.0003802076611982535 
-0.1923504389290367 
0.2650811296432274 
0.2196421388049056 
0.2490354307800778 
0.1319918270942751 
-0.08921607746158045 
0.0003466555254727672 
0.004096315699770633 
0.004119911389093116 
0.5478989308846545 
0.2111244901266960 
0.09598190780759261 
0.2617075963324061 
0.9230938708617987 
0.0003260470712825223 
0.0003260470712825223 
0.07672483669816782 
0.9011407737749726 
-0.04017084240146738 
0.1771992484657471 
0.5026710971514442 
-0.3484678921104865 
0.005997892130975607 
-0.2104260020242912 
0.2677902430734271 
-0.08114546521216134 
0.1131598698211905 
0.0009473372130379984 
0.2210863728215841 
-0.1890594536129446 
0.02921962878255352 
0.1086884343452741 
0.06845943007979453 
0.1573500545186467 
0.2333495741828042 
0.2622917834207089 
0.1671829799311735 
0.4949789836596090 
0.1669563677706525 
0.07233332028689113 
0.08245666934045633 
0.08258898437565261 
-0.01621881727307066 
-0.5871448255668718 
0.1228755582144575 
-0.04421302302946087 
-0.9881385611826570 
-0.3547378132192999 
-0.4342890317636514 
0.4754759677158369 
-1.384165490837094 
0.3634556141419286 
-0.9285897981229746 
0.7005229085622657 
0.4317135525194279 
-0.7938069398925167 
0.02748036884306794 
-0.1500261090707892 
-0.2835635205494937 
0.05673853729484085 
0.1411732419545779 
-0.007492656255817196 
-0.01050194122188516 
0.1497827739668924 
0.2187578871285521 
0.2307520508747784 
-0.2140287902593856 
0.1951867433436405 
0.1986491826139005 
-0.2909945620983013 
0.5049407692523952 
0.8954037162367752 
-0.3240278024268870 
0.1390217128258334 
0.7448469418897797 
-0.1280328951408787 
0.5612701045626814 
-0.4002430741096247 
0.5347602663674751 
0.1783418291988285 
0.4269829176742052 
0.02581894867782159 
0.1803876844828805 
0.5055171939115568 
0.003050945992107386 
-0.6715332792855423 
0.07689564167352934 
0.7391363790328267 
-0.3231473368431865 
0.2724319949342599 
-0.5307098181379624 
0.1682555347178005 
-0.5307098181379624 
-0.02326528675958772 
-0.3925464491634225 
-0.1740703439985834 
0.3054226802932289 
-0.2155570704514172 
0.0002030063714858576 
-0.09204228493384528 
0.06592604745539891 
-0.0005239763175859132 
-0.2353420622640518 
0.5144102379734425 
0.01182012540326169 
0.1331159253666433 
0.009449434835911746 
-0.1268323405657242 
-0.4150237034485954 
-1.069131181610781 
0.8123957780061806 
-0.3118549620490400 
0.01294859666591531 
0.008070882344862427 
0.005902582360990647 
0.002132307707411291 
0.06694810109098714 
0.6341298233637692 
0.1738102213299594 
0.3520478916791562 
0.7922171861603300 
0.01357949788481876 
0.2939726688245676 
-0.4131637133684379 
0.0008165676027303217 
0.1132789965737106 
0.1048580110195342 
0.0004863926734034380 
0.5918446180452583 
0.1476771419368400 
0.1241961391580851 
0.03726989310440079 
-0.2030153369417037 
-0.09777481291021685 
0.0003359411047052227 
0.0003359411047052227 
0.001804927877429209 
0.003609855754858417 
0.05956413536417019 
0.3576715770471851 
0.2374612037361744 
0.3378978288217219 
0.08409844937340145 
-0.5220970322608658 
-0.01554754148710170 
-0.5742537060577296 
-0.7435330505267731 
0.2273128791873635 
0.2400784603396094 
0.05436322765840251 
0.008675751403102144 
0.1634120544835664 
0.01350202874904789 
-0.04166943279019920 
0.6144390388108134 
0.3865296098452494 
0.6397210078709035 
-0.5234920044367117 
0.008314526882096513 
-0.3895323673943379 
0.2854876284827291 
0.2929907110388910 
0.0004900311478432116 
0.2191720109422732 
0.1416255889957060 
-0.4256250418627097 
0.1272930676884383 
0.04799921962993287 
-0.08060513688207963 
-0.09631001613747947 
0.1738223971637487 
-0.3403942132870270 
0.1662886643931265 
0.001334293522840196 
0.2960421384587061 
0.2330888988554702 
0.2720183946425251 
0.0001240586900663782 
0.3143139989186881 
0.005894607992828258 
-0.7567071207878696 
0.7489018456604817 
-0.2766140597950876 
-0.09904603788836493 
0.1094357714343375 
0.1704597041954215 
0.3069281004519127 
-0.0008699173230786437 
0.02144663087211727 
-0.4479313096417112 
0.002776536002642124 
0.1809366776592402 
0.6778252209624155 
0.02579003251127472 
-0.01479924345245005 
0.1784586441316045 
-0.3981801255640048 
-0.1647024407698460 
0.1781614552670401 
0.02704714881631146 
0.1535914342160446 
0.01034668715393430 
-0.1211185330253994 
0.02468625540222959 
0.1830383767616924 
0.2103023014393428 
-0.03199542805088420 
0.01204247164904168 
0.1195471429687196 
0.2179469315589154 
0.1470854063778123 
0.1470854063778123 
0.5892649076962504 
0.04949863158327512 
-0.3501465174679847 
0.02368977883021633 
-0.07743505125228300 
-0.1263201669531041 
0.3378046479021842 
0.001914727732729232 
0.1022521445743153 
-0.2747539697270250 
-0.8158099050425995 
0.2166879205855451 
0.001177805215310456 
0.03286199487261571 
0.04498741857627154 
0.06402509250831517 
0.06402509250831517 
0.1389783907656342 
0.0007371831750514133 
0.2074463280927768 
-0.2979814953642004 
0.004954607723369903 
0.05500624207753067 
0.07875016980325267 
0.1864536232540256 
0.2345242348812399 
-0.2585343030919008 
0.09639223885806057 
0.0002253008101681138 
0.01146006312652929 
0.0008252408863521138 
0.2513048202344955 
-0.0009309112573702945 
0.1096255141123713 
0.01266156654432959 
0.5090428981450617 
0.7452812440543531 
0.6191011304899675 
0.0001844729764129985 
-0.1661250363453583 
0.08751916600694987 
-0.2022424944776551 
0.05382620833112875 
0.1971822496821863 
0.08651433077002990 
-0.2318326031621865 
-0.2808457284700544 
-0.2808463470057365 
-0.7303850119511440 
-0.09204228493384528 
-0.06556955338878967 
-0.8838368627324076 
0.5159121546867999 
0.5874120822189950 
0.0001847897890545178 
0.6693806348523301 
0.1950458750366978 
-0.06248291570888432 
0.1970687500608521 
0.7639906655941642 
-0.1041997150455364 
0.7630151669791819 
0.6205066322479762 
0.1977274367034244 
0.0001090023315888414 
0.4920600485216228 
0.001277184316966038 
0.2014004061300640 
0.06994785731914570 
0.2604717884358936 
-0.3823712847720931 
-0.5451054228286200 
-0.1867901016239704 
0.7642903741574110 
0.1034181947817864 
-3.121708402199579e-05 
0.1173409656476061 
0.1811243141917006 
0.2472055396488982 
0.002301743319410455 
0.009093155798608076 
0.2037547275882864 
-0.008432047878446312 
0.4376185103687551 
-0.1329773984148038 
0.1957295683017658 
0.0003818571478030682 
-0.1891248124248186 
0.3615195840291122 
0.1375572192238628 
-0.3919469030628421 
-0.1949825690822579 
-0.2297425065472331 
0.005951014430724877 
0.0005552772104282967 
0.0005552772104282967 
0.0005552772104282967 
-0.001474970322661652 
0.04391834356713196 
-0.3413899812023675 
0.1719330421614048 
0.05745446036201396 
0.02599881981539794 
0.05197484756150494 
-0.1529011521999994 
0.2103608925270649 
0.3769006048008430 
0.1647161245126626 
-0.09230988149242299 
-0.002016861194829930 
-0.0001112433310935287 
0.4489964101271048 
0.2040520734048659 
-0.6807172658456873 
0.2045942412179228 
0.2281574153025225 
0.05740078236016290 
-0.2631326767525865 
0.2204548527556575 
0.007781905767483134 
0.0002942814146625928 
0.0002942814146625928 
0.0009248669716568690 
-0.001522006454356358 
0.2848032431151252 
-0.07459940323658550 
-0.3467531000489164 
0.3795318056854874 
0.1696604973027709 
0.004255469368323409 
0.004255469368323409 
-0.05150285655306842 
0.005520200240437878 
0.3394320870025273 
0.0006278075323555563 
0.4191353941903542 
0.4733358413622621 
0.2693605466983691 
-0.003030072141303484 
0.1775262473818591 
0.06130365915963702 
3.844400751316443e-05 
0.07161030547843590 
0.01614145750196467 
0.01520007821863202 
-0.04527586729507201 
-0.3780046148269728 
-0.1605334500230571 
-0.1963691402740240 
-0.4125160489088691 
-0.2505421356568900 
-0.1656951263712866 
0.02681180734345787 
0.02561148026557091 
0.6630200121889159 
0.1826820321790167 
0.08192340721644070 
-0.5144254589065709 
-0.07601716787089029 
0.4096482248174285 
-0.05751209646052383 
-0.1028023855683078 
0.1985805699036617 
0.0007547110505221249 
0.08413080159180053 
0.2288216410794490 
0.3633979128753688 
0.002054444011803323 
0.06609183978534129 
0.06484020654700248 
0.4991212463485045 
0.002054686933556253 
-0.6159103571870218 
-0.01017232936808931 
0.2435622835786185 
0.5362962436219787 
0.05047934993311460 
0.3048628735546462 
0.3276838198507263 
-0.03920231165441156 
0.08763241753383014 
0.2664641682942286 
-0.0001897744946939324 
0.2497836758110824 
-0.5419691488422150 
-1.191529012486093e-05 
0.3848793664549321 
0.2921608330880981 
0.2834742782305784 
-0.5710614552718549 
0.4657964016073850 
-0.001421751897381823 
0.001646818917234188 
0.5949460329116868 
0.1686120675689291 
0.06675511403996297 
-0.1637191739171356 
0.7425175456906071 
-0.2831288131061102 
0.4048979834573501 
0.1067489189343085 
0.1910587548147918 
0.4418861205440148 
0.5837375475049855 
0.1076791715098545 
0.6197323320821659 
-0.02168339762309419 
-0.2893032591888164 
-0.1371637965749807 
-0.1371637965749807 
0.1776848038701555 
-0.01689119296365041 
0.08598588760209275 
0.07281538013977226 
0.1815296692429447 
-0.2548506808011408 
0.8213966294848949 
0.06114329882088176 
0.1782490663284785 
0.03237339240239755 
0.01172536008048986 
0.2506770497700382 
0.0009369017565213997 
-0.03925550165451591 
0.06481447562112307 
0.1149983584629954 
0.001350874096048247 
0.001350874096048247 
1.056556717243590 
-0.0007793799091192391 
-0.09685931565914255 
0.0002131489651619386 
-0.003118351959906187 
0.1908182385511913 
0.6231486060950261 
0.2281969389986072 
-0.04479829578951958 
0.006563239893652833 
0.005106449374805465 
-0.3958553994816169 
0.6477391165721224 
0.007306056829375504 
0.2487927331924426 
0.5246458222470121 
0.5616112601633400 
0.0008616598939563992 
1.051794033403869 
0.1061969863516038 
0.3354020700125041 
0.007205493581270121 
-0.1487266341887932 
0.9178556460102545 
-0.1667455214276675 
0.1566538148846630 
0.1548191612822367 
-0.09707504635658981 
0.04097676676463753 
0.4319493073963590 
-0.2479057225110075 
0.2204295933987856 
-0.03128538538488635 
0.002123604586063292 
0.4476439612562452 
-2.572372554000240e-05 
-0.001534583498500296 
-0.4466977995985116 
0.02970926543195983 
-0.4466977995985116 
0.2244994442170505 
0.1647746926809460 
0.3389136741475841 
-0.03880997448984924 
-0.1826837233769813 
0.3849360320986232 
0.002378395099475651 
0.003494971206728489 
0.5172260710857797 
-0.3623462522635654 
0.04515455902365725 
0.1639145615914373 
0.2272614462756799 
0.4474912330420264 
0.1642802948678818 
0.6539384354248762 
0.0001233642165712000 
0.06635498895565947 
0.6542430955403066 
0.5197968994970137 
0.9152250110730156 
-0.04358608781216887 
-0.001893714576717053 
-0.8390195937018338 
0.01139277585376296 
0.01139277585376296 
0.1626916360453943 
0.05795086807182956 
0.01528152325098232 
0.2282423026768228 
-0.0001911072175154578 
0.3811552641587742 
-0.6915087856089922 
0.2482839911676831 
0.1670945766592162 
-0.02564635595830046 
0.7466310970760716 
-1.215077442284051 
0.03208099771103706 
0.6210557994061526 
0.7830555501350537 
0.9443346381775600 
-0.5684310674479801 
-0.5734460209462291 
0.2498450856247949 
0.01837938147304792 
0.006565035614636090 
-0.008058107054114420 
0.0001130954333463483 
0.0002105024595569391 
-0.07308097532067490 
-0.3861663278171206 
0.02614687703460781 
0.4753770758864049 
0.1179180401683041 
-0.09756757327011589 
0.01139497788074146 
0.0001007603257609136 
0.006420684920373056 
1.701154054293660e-05 
0.0007783966125256609 
0.0007783966125256609 
0.8128888031838676 
0.8125694807020208 
0.05347806321773178 
0.1971547763620049 
0.1639373188318308 
0.5237051742006261 
0.3859860688511717 
-0.6690527582587693 
-0.6076912967950724 
0.02692311629774003 
-0.02174504964478444 
0.2260214082673618 
0.08906909735698969 
0.3079861368254097 
0.1292479165829401 
-0.3491223581315573 
-0.3490959418674433 
0.4248536297967763 
0.1824603780954951 
0.08417278540982871 
0.07213194182966795 
-0.4912736554173638 
0.1919510979519277 
0.1919510979519277 
1.032865655419190 
0.1566351518268986 
0.1374699385052272 
0.06322280814694359 
0.05786228844543301 
-0.6532581021429212 
-0.9568418535474881 
1.546162141759740 
-0.3725287081610540 
0.002253258400436264 
0.2431802805246136 
0.09462018139640585 
0.09982561488204988 
0.005410204224568602 
0.01019909731026018 
0.2302110034873750 
0.1958611878573214 
0.1455627152861268 
0.06087043334874397 
-0.09152848796703404 
0.0008309793870949802 
0.0008309793870949802 
0.2222613863810806 
0.2194338113516639 
-0.4154036476767443 
1.154356248880394e-05 
0.3514799464119556 
0.06887050593300838 
-0.004571002450171107 
-0.004571002450171107 
-0.004571002450171107 
0.07091959594791998 
-0.7176088145501380 
0.8891834278771736 
-0.7529738866622030 
-0.02097549756167027 
-0.1295402525263650 
0.1228113955984102 
0.1228113955984102 
0.2529505438518974 
0.5238711717153789 
0.1604622923074763 
0.03640208146530638 
-0.3038351968690342 
-0.02600207907019406 
-0.0001297072120202595 
0.8304707997126569 
-6.485360601012976e-05 
0.01748237611923322 
-0.5838950361587885 
0.2916811061234079 
0.002820945780155774 
0.1131770231692761 
-0.3921278690828520 
0.001946288981444415 
-0.1959955303772637 
0.1652905862434529 
0.2076740050086023 
0.1637947480620313 
-0.3677868737806808 
0.2178301662453753 
0.3631870245215910 
0.2808311431523765 
-0.1184762453876522 
0.2009823340208575 
-0.04973351484561239 
-0.04973351484561239 
0.3336318642822794 
0.0003831126860658488 
0.002797050435335743 
-0.1050887858808107 
0.08656535312126576 
0.09134767772857796 
-0.2935630268108062 
-0.4675374112646932 
0.7189239079860267 
0.02518414616513456 
0.005539046751388204 
-0.02226622564830265 
-0.0005754076934341600 
-0.04657964949910059 
0.006927741234306609 
0.02616563125301100 
0.1746954132643251 
0.1816696721205209 
0.6742753449522375 
-0.1867252415288883 
0.5617393810096638 
0.1533902640403822 
-0.09793161176256697 
0.002001905371143027 
0.7233209048824814 
0.09197875778118844 
0.1033010354589059 
0.5029919548186659 
-0.001984285222120409 
0.0007577965371326729 
-0.1558201114154794 
0.0003964890839898792 
-0.0003219271579914552 
0.0001848018321702850 
0.1148060184297197 
0.1189999983566938 
0.1039297371413993 
0.1944681212607703 
0.1946452686559226 
0.1089475412386829 
0.0003177642933221972 
0.1077761104861912 
0.02557500227439276 
-0.1489900031990349 
-0.3972765805460571 
0.2268189388078805 
0.006221114464293287 
0.006493591917578417 
0.09071022930463384 
0.2965232399692424 
0.6538746235828559 
-0.2734859042842620 
-0.1444699149134998 
0.08854123477848734 
0.08377218847882320 
0.1969033995875873 
-0.1587705426070490 
0.0001584780639472003 
0.03052960841647781 
0.05009070714705556 
7.884984747956914e-05 
0.3758581175192093 
-0.4645522409988264 
0.9973820142479068 
1.015402950341619 
0.1224049380819682 
0.001861835987840929 
0.2058419635577852 
6.211251385936145e-06 
0.001285681288803691 
2.017993174817666 
0.1571080046982773 
0.08837439634034647 
0.3317278298425738 
0.2457122596717455 
0.4374697031261341 
0.1080156390527616 
0.1016027094230459 
3.567204834018074e-05 
0.001270554076492403 
0.3034526512785091 
0.01776218345597537 
-0.3051095933691380 
0.06752331782898092 
-0.2587676244241490 
-0.03646074133078307 
-0.03647812225293375 
0.2280146363785265 
-0.2946328166897126 
0.0001211231271495499 
0.1339015141482145 
-0.7045967078880598 
-0.4833799428376119 
-0.03670731602385166 
0.03723461075570334 
0.2186393609548391 
0.2823177020071768 
-0.001810654810776786 
0.7398040611292640 
0.7539237068610992 
0.4286994797778539 
-0.4320728842861303 
0.2938452682109626 
1.236980672774707 
0.05885904767539955 
0.0001586350529908696 
-0.09547183527173615 
-0.1907618833031459 
0.9959254006676631 
0.7256995616484525 
-0.4586262012556596 
0.1663876413208335 
0.002191894493732088 
-0.4719814100786189 
-0.5873115279089932 
-0.0004984293483611694 
0.07114085041515443 
0.2988045250703500 
-0.1622206867877035 
0.1534203658343422 
0.006270324767512219 
0.1078263559599568 
0.2346210860653259 
0.1438498406108268 
0.2951465259417014 
0.06994353003875683 
0.04776805905303298 
0.0009904360723611515 
0.1893009095663796 
0.04511785980471939 
-5.698792369491164e-05 
0.08423528951354224 
0.1738223708978988 
-0.0004394627726539550 
0.07573657380608705 
0.1112139046557789 
0.0002065982726778365 
0.0006139624469535783 
0.4578683091681515 
-0.3579047045682238 
-0.1253690132743356 
0.0002356265401385312 
0.007688372540228685 
0.007698261740679353 
-0.1707730198696539 
-0.5211844358002744 
0.07112469592669948 
0.03684832416152823 
-0.3117849519765111 
0.05422613445187934 
8.086714998849189e-05 
-0.2309109783615351 
-0.1134001245756605 
-0.1091251479100028 
-0.01095768766191903 
-1.100919953627365 
0.03868254825590183 
-0.1131074357008482 
1.066571106364749 
0.0002871021676265144 
0.1246744388900532 
0.1297925735263104 
-0.1426757495963159 
0.07437202240086419 
0.07438491974522589 
0.0004915532011230286 
0.0003606781310400922 
-0.01521874894290956 
0.3468673666227168 
-0.002689065707385093 
0.003123149864773401 
0.001276034008926855 
0.04715604808781833 
0.04551185221454410 
0.2503270620246749 
0.2379458878393203 
0.1761822780916552 
2.024423987066504e-05 
2.024423987066504e-05 
0.5350912346198090 
-0.3494804133561147 
0.001197470828316756 
-0.03763142451156706 
0.7827497315472286 
-0.5349325167860394 
-0.4058642014020576 
-0.05680044528714753 
0.2465887441654285 
0.03168707155034208 
0.5064204318918090 
0.1711186239640445 
0.5159702260367838 
-0.3030409477276907 
0.004675343650594425 
0.004675343650594425 
0.5250455866324523 
-0.1405006331973699 
0.06586271572552213 
0.3154080674860720 
-0.0007102107816886411 
0.03344654173754006 
0.2519974593305970 
0.6264534214789003 
0.0008930086652812257 
0.7073552789097551 
0.3550944154528140 
0.3465944017867395 
-0.04589737257864590 
0.3474842979013870 
0.002967059025793647 
-0.02802890952199990 
0.0004125958673587007 
0.002728762812121431 
0.7474517707333210 
0.01825031735587221 
0.01825031735587221 
0.5736569913010340 
0.2340849911039975 
0.3336294151219580 
0.001198051716045504 
-0.003271600379877496 
0.08951205062022550 
-0.05366616295694887 
-0.05360771084682180 
0.1315313031542488 
0.1314422401198352 
-0.0001372438630053024 
-0.0002334394593809542 
-0.0002334394593809542 
0.3525085199433090 
0.0003145974054999914 
0.0003145974054999914 
0.1363091070690962 
-0.2787597917199508 
0.2577774432778249 
0.3069525275333457 
-0.2950175760259104 
0.3420626236992613 
-0.05808627766106317 
-0.8502693359761693 
-0.4059501039888711 
0.5367162990798037 
0.3049921013144604 
0.0002740935011457490 
0.1622084145130459 
0.1878249661079543 
0.04997967479310890 
0.01837108075613762 
0.09383506178555297 
0.08901994444115714 
0.09004061111628464 
0.1444579687708548 
0.04835941184038547 
-0.0004096997162299263 
-0.2556925769483689 
-0.3601387000214268 
-0.2411496143070873 
-0.3709320724757782 
0.6002830850689925 
-0.5203482708057341 
0.0004481091678548478 
0.1528294525781682 
0.3151374012280748 
-0.2112780340166551 
0.0001205923712295354 
0.01370844073443908 
0.001015238760343116 
0.1085174515256704 
0.1085174515256704 
0.004782940848287502 
0.004782940848287502 
0.05957882006207869 
0.004380117295133237 
-0.07916025009603737 
0.01196486590784943 
0.004380117295133237 
0.5141647542802937 
0.5141897584554180 
0.04979022033439819 
0.0009079576198165791 
-0.2095624649335985 
0.06920117989895772 
0.02614687703460782 
0.0004509515728116626 
0.04323053425045968 
0.4673757433177581 
0.1408287238173800 
0.1408287238173800 
-0.8993527295634182 
-0.0006464697941068443 
-0.0003325878834194152 
-0.02996086991426566 
0.1830638080715911 
0.3582896763995792 
0.006508574684677460 
-0.01695950348337127 
0.1369695004850073 
0.02750843545193529 
0.1369695004850073 
-0.4406112850393573 
0.004216556587521370 
0.1224819290303461 
-0.03136460303185220 
-0.4321296052237720 
0.01588977537316179 
-0.4578210022350620 
-0.4401973742742456 
0.3577229052015858 
-0.6434025618964356 
0.06638743017214667 
0.05982344666048073 
0.1549681347258181 
-0.1259752998003574 
0.1677003887713870 
0.06894501049139380 
0.05039342399286656 
0.4466142349719985 
0.03307166897591783 
0.1132194416178212 
-0.006130801305749899 
0.0004164261424576043 
-0.4453501042519043 
-0.003710341083692538 
0.1585324993680469 
0.6873268170504272 
-0.5285919125083892 
-0.002205434860695040 
-0.002984125558876809 
-0.002863119773911760 
-0.002822720164496249 
-0.3137577026252898 
-0.3766111884835846 
0.08321736263976201 
0.08321736263976201 
0.3158242509650879 
0.02103916343551006 
0.1422069114406011 
3.598091024307478e-05 
0.1805978050255377 
0.01476169163164939 
0.06254780075466633 
0.2343981654894593 
0.2746456258455426 
-0.03201325170099509 
0.02518130129654663 
-0.09204228493384528 
-0.0002389298211802690 
0.1529446562029060 
0.01687367923055459 
0.7484378476044578 
0.0003299613355273551 
0.002164244752723584 
-0.03377626172015789 
-0.02809017616724801 
0.01294757911731242 
0.01294757911731242 
-1.319903488045217 
0.9156105375020445 
0.1092799950560109 
-0.1752068602806619 
0.02321384097543016 
0.009731760942067090 
0.02252627466665912 
0.02209065258090389 
-0.03364122843227320 
0.02230311796694273 
0.1213045672347211 
0.6994553363550484 
0.2274764733864300 
0.1800514704065792 
0.3577967708417147 
0.2791100063717214 
0.1257596369417026 
0.0001295142809078927 
-0.2242599023383194 
0.04401330405888492 
0.08688386129294594 
0.1905009898970333 
0.3251606705448750 
0.003000277960464376 
0.006663160694656626 
0.007920038870830802 
-0.4774290172148477 
0.3680304484627869 
-0.3453274143352318 
0.02547183427233192 
0.004077802387388935 
0.007280111538672527 
0.001143611875112774 
-0.0001288929738745001 
0.2246411729320602 
0.01528281202882814 
0.001132278573815050 
-0.1521954179353496 
0.0008975312185296161 
0.1668136414294126 
-0.3365162063120611 
0.3632485218358003 
0.07656143471254170 
0.3495431312385782 
-0.2395454877055785 
9.784689982449843e-05 
0.7443007872734184 
-0.003963649633937962 
-0.002181906697338173 
-0.002181906697338173 
0.2286856467070196 
0.2460619366469045 
-0.3595824565244163 
-0.0005588952150575545 
-1.115167945294119 
0.06779963288325375 
0.0002645187178671942 
-0.0003773478467060042 
0.01026269290440252 
0.2894295884019006 
0.0003662350229017051 
0.3743867602260678 
0.1498311128387686 
0.02614687703460780 
0.04161367892640254 
0.06071217215676265 
0.01215598778488897 
0.01708337622858663 
0.1947578234001672 
0.1947578234001672 
0.2330776225169297 
-0.3040362199066028 
-0.2028604134960324 
0.08729415298099821 
-0.001644195873274218 
-0.07785847613388425 
-0.2839282950281735 
0.2221498489686616 
0.02273346513742959 
0.7712148422833797 
0.7340508814988762 
0.1939339556666935 
0.02468123975852823 
-0.3986321389283845 
2.099345405684068 
0.01297529315716445 
0.1825935349493584 
0.001906392753256575 
1.227738739742490 
0.001906392753256575 
0.006359732852050507 
0.1875294604676988 
3.235250469134051e-05 
-0.8809871518022766 
0.0001876422704554272 
9.351186738661721e-05 
0.2440792265382827 
0.001279522383663365 
0.001279522383663365 
0.001279522383663365 
0.04448359269831721 
0.07072567090725418 
-0.5965412865079441 
-0.09204228493384528 
0.1124464109497629 
-0.1000726639936912 
-1.046028797665293 
0.004234683269844979 
-0.005603096311063084 
0.1199534579666479 
-0.2957601928215546 
0.09897004706711689 
-0.04429664772717241 
-0.2841156884035728 
0.04137526703864256 
0.003144028758847393 
-0.3649594739960516 
0.4854170548510027 
0.4544719289203907 
0.2377524099562924 
-0.3992537313085575 
0.5787727879338652 
-0.09204228493384528 
0.2238058355508846 
0.2480047243272543 
0.1827372923012259 
0.04658290546874550 
0.2657942978928559 
0.2104031481846252 
-0.2986977092436187 
-0.01727408868927628 
0.0005457209939908669 
0.003234649645825941 
-0.2759147971782533 
-0.3940619014765989 
0.3103884455203627 
0.08044631236825378 
0.2484802643652714 
0.1771169446493386 
0.1171066510770412 
0.4072175677647791 
-0.3448572945455003 
0.05842601539629441 
0.2591115065689804 
0.2694122236512646 
-0.4978851505190655 
0.05268680968123767 
0.2273813880017101 
0.2076762948003429 
-0.1635128671634257 
-0.06232654805003691 
0.0004805086312632820 
0.09970738188706811 
0.1404437513458032 
0.3967778755545086 
0.05010047144786556 
0.0008502308701290719 
0.7329621969256842 
0.1857217832927790 
0.02638570469973977 
0.0002358688025494164 
-0.1918019023375131 
1.059599825702974 
0.008104246411466181 
-1.033983934612690 
0.7471268744471098 
0.1083874870668489 
0.1262646602901913 
0.1264050033844174 
0.1356906319782124 
0.2063561769245317 
-0.01627490542819575 
0.05441050579068409 
-0.001211151606589781 
1.075495491981649 
0.2403240447878832 
0.0006606812465896757 
0.04345977683670758 
0.1809287097180811 
0.008983607444770319 
-0.4936247843378517 
0.02915976529414272 
0.03795031286217879 
-0.0005245046572937703 
-0.3529834768236848 
0.3116936995317538 
-0.5289495903698620 
0.3021505176934667 
-0.2371135768071129 
0.1075865342608006 
0.009881322849553370 
0.006499827589004063 
-0.1765837607311416 
0.03095643457967043 
0.06409476441137317 
-0.02644802479681872 
0.03355486381979815 
-0.01811730979728403 
0.7471503584151251 
0.1891358564683374 
0.1132961243114612 
0.1966261518909449 
0.2150712682687350 
-0.4248512527554789 
-0.05102012791857993 
-0.05014065987946213 
0.1125008708667375 
-0.3783345541665008 
0.01688465173500430 
0.001185852754568288 
-0.1371098549920228 
-0.3771603720022377 
-0.1001144257511247 
0.005814471794747549 
0.6741103648986236 
0.003242181728057883 
0.1311238023164420 
-0.5183565489457270 
0.0001390940894422087 
0.01135251069226835 
-0.0001325260553066090 
0.1314744565170550 
0.2780914079905513 
0.04372273826647519 
0.001676638403614457 
0.3272838277076333 
0.1889705838388860 
-0.3512780673796860 
0.1488502713292584 
-0.001012746059937315 
-0.001012746059937315 
-0.3464023729778504 
-0.001012746059937315 
0.1601616039035475 
0.7468161363414574 
0.002686807321331157 
0.0009306313666861504 
0.5617841913082908 
0.02735545320347266 
0.6221758662624219 
0.2572180795906246 
0.0001721613558972938 
0.7492238200891040 
-0.1180111179831380 
0.005485247961141740 
0.002409110078200847 
-0.1116353403512020 
-1.843571257451159e-05 
0.1567329380681770 
-1.843571257451159e-05 
0.0002568750306111351 
-0.4059501039888711 
0.03630972511473997 
-0.0003640471024787497 
0.06734752537804131 
-0.9181951090680227 
0.5736916696765081 
0.1371105074451653 
-0.6658430394112602 
0.3222486423489081 
-0.6093153215462345 
0.5281112454301320 
0.1766480369021357 
-0.6844828319311215 
-0.1253674422246663 
-0.0003049490851735323 
0.06426796150965362 
-0.0007349294073991447 
-0.1056901696732674 
0.007751292866718955 
-0.1336336559088724 
-0.5496629184960410 
0.01810803994768665 
0.3295993063977218 
0.1858582461456297 
0.0005851299407422415 
0.2217097541412396 
0.0003747671269563758 
0.2826470721232056 
0.001924047677485130 
0.0006413492258283762 
0.0008240569489057718 
0.3652314537670393 
-0.001496196631757389 
0.001640702539922702 
0.06965897727780626 
0.001640702539922702 
-0.003614515412373344 
0.002224450821651313 
0.002958897964766432 
0.01391956431120045 
0.0004730353115471737 
0.0002088948346836780 
0.01344415847014589 
0.1568625530153903 
0.1457592362644279 
0.1417645464900939 
0.04750472568901237 
-0.05841183790263784 
0.3092448881115684 
0.2549888774205323 
0.3289023452363884 
0.2076775739976595 
0.05961950860733453 
0.002340336168433669 
0.0002467884407203076 
0.1743975076002379 
-0.1522030892154060 
0.2502302625135591 
0.1660293469594203 
0.02208202992252741 
-0.001159273662588507 
-0.3075074149893088 
0.4396619716155484 
0.8130657236094713 
0.1579348703747160 
0.07971625627083277 
0.01742962600700097 
0.2196426137548944 
0.2070620116884734 
0.002847224474307823 
0.001052906037390917 
0.07390538538110823 
0.007234889638870245 
0.1111685780534929 
0.1348326874836027 
0.1348326874836027 
0.0007307550623739163 
0.01886871269018778 
-0.001186646019348647 
-0.4929061659176471 
0.01497362458005722 
-0.08457222138727606 
0.06299898595026090 
0.7616600593970011 
0.3635798084841784 
0.003320703961564507 
0.5075679611253608 
0.1982240620657477 
0.0002328988822921278 
0.5265260706605827 
0.03526980128518864 
0.0008382920573199716 
0.0002571728992083603 
0.1527715086874897 
0.1988777253424775 
0.0001780870369074414 
0.0001780870369074414 
-0.1531823543426401 
1.892529824074610e-05 
0.003433225689431799 
0.001111957161898404 
-0.1464616858628508 
0.6514931191456858 
0.5221385406983817 
0.1725200514599127 
-0.2417087123715787 
0.3743852419613101 
0.001208240225104348 
0.2086785863429254 
0.07376885136839936 
0.1593999789574433 
0.1565895844423429 
0.02457250065589903 
0.0004985843708251961 
0.1168186130297135 
-0.09204228493384528 
-0.001001332287683425 
0.5353311559407321 
0.0004548307823310525 
0.2423780670563054 
0.003434169340999869 
0.01226386895339203 
4.178973208691004e-05 
-0.01074519579286181 
-0.0008893246353363654 
-0.0008480011757199058 
-0.1893196921544401 
0.07349943861495419 
0.04911916770885647 
0.1863275457438260 
-0.4748433596240422 
0.0005443756945629301 
0.0001899713216589418 
0.0003557097535715728 
0.3795157635699215 
-0.0002469927007379581 
0.001169139588266119 
0.03565276933763380 
0.0007381220137964495 
0.7511840584875410 
0.1545183902101016 
-0.2154662429998132 
0.07125165922802278 
0.009968612371728573 
-0.001519759976078883 
0.0007117528220660121 
0.1427149183590009 
0.6897362005360063 
0.2410477218493422 
0.06568583383250308 
0.008335415137138556 
0.1737879405051758 
0.04359770067784108 
0.07388365319997162 
0.09945692932428195 
0.07069896538298386 
0.0004151762000119458 
0.04627098813384867 
-1.332769508793623 
0.5429798887473648 
0.1634180258969255 
0.002089212463435963 
-0.2125700188052885 
0.003333308052158622 
-0.03793496953412848 
0.3097925704449400 
0.02615062000511247 
0.4401528780965390 
-0.09204228493384528 
1.237119275813036 
0.2871262692461934 
0.03129515866558393 
0.8302045818102367 
-0.3468647777025251 
-0.7441281115712673 
0.2817380856078459 
0.3693924053376848 
-0.5748938123332711 
-0.1692378218463577 
0.01062178794980095 
0.008900094072128245 
0.001835203841739277 
-0.3456096412639851 
-0.01124414111839274 
0.01032563183335726 
-0.0004984293483611694 
0.1378529328078235 
-0.1881623326103588 
0.2164232200671690 
0.1714911374378232 
-0.5883049600839627 
-0.3106484290420970 
0.1782799529099113 
0.04287053197717255 
0.01588864422670760 
-0.1335358724341749 
0.1251532540004569 
0.2067376981560521 
0.04253114873928494 
0.005079507157760125 
0.004962985416411449 
0.5923467875998686 
0.1998621888010593 
-1.368967916290388 
-0.008020182391372045 
-0.004248793579634096 
-0.004248793579634096 
0.007050647939989474 
-0.4908501129765898 
0.07401076775104663 
0.2343759442943059 
0.0008905722502469991 
0.001106052949823359 
0.07098501588003586 
-0.6243761277410046 
0.2951414544610096 
0.07402189266302639 
-0.0003017593447493100 
0.1456117945540633 
0.2223609483871336 
0.06862007494033946 
0.09971564618782500 
-0.5987545801975692 
1.594299987382559e-05 
5.035402355515118e-05 
0.1602703474212533 
0.004720673185840392 
-0.0002389298211802690 
0.2556528909772190 
0.1069191515004939 
0.002893756633141817 
0.06965230295198171 
0.01555098353576167 
0.02926066150850045 
0.2667680777736329 
-0.07043581779929858 
0.3806105689434265 
0.1081209129888651 
-0.0008508087434521805 
9.599261926054239e-05 
0.0003184076015851281 
0.04453430826185981 
0.1527213560372232 
0.0002396824361686479 
-0.2208121960022412 
-0.7917547301176109 
0.5539900816221923 
0.1403385195555257 
-0.1393842531666149 
0.1132215570253279 
-0.0002340665878899946 
0.2429748561696463 
0.03779841488796931 
0.03779841488796931 
-0.1320846579590208 
0.2607531432604752 
0.3310698012617235 
0.001218704973594269 
0.005080466166975033 
0.03272291019913403 
0.004471667938159328 
0.4110632346135115 
-0.0001316451635420978 
-0.0001316451635420978 
0.07588110849885257 
-0.0002122900906475086 
0.08080042067956850 
0.01213481504548419 
-0.8562706445544241 
0.5265282918697742 
0.07570577602707658 
0.03123032695424731 
-1.001536414283380 
0.005115474444768582 
-0.06198479944892311 
0.0007049779723185330 
0.002655725591273855 
-0.2469949748005828 
-0.0001630715597317353 
0.005984889371754044 
0.001467137573299650 
-0.0001630715597317353 
-0.002628946070557790 
0.0008116490699249228 
-0.4287542100889983 
0.2113648714447337 
0.002661356674638263 
0.3538068108176505 
0.1193093909139450 
0.006295959765266816 
-0.5823226220818817 
-0.3177908624435698 
-0.001128207041546959 
-0.8771801796746487 
0.2094220909650683 
0.2093659546271809 
0.0001031012392398256 
0.07261049388581683 
-0.1866769888210581 
-0.01201128745520620 
0.3609548659855553 
0.008733288411670325 
0.1575153834361643 
-0.4517387791403728 
0.002637572297502353 
9.621867440058996e-05 
0.5566633058365619 
-0.1416155116948316 
0.1575753812898239 
-0.0002515335579357623 
0.004521739332177795 
-0.6051364603336776 
0.003448419403585863 
0.1191875394490488 
0.01118346764589876 
-0.0001301163484124995 
0.2010798820884657 
0.1048255721025266 
0.2097464615828369 
0.008075857080726794 
-0.3303111454537322 
-0.4336690156411501 
0.8302042401463018 
0.02374637615603491 
0.1447126733907044 
-0.03679552198953176 
-0.002198193587800607 
0.001037020192548345 
0.2940125825299887 
0.0002279333751840138 
0.01336974593020045 
-0.0009545232576772242 
0.006027331778585510 
0.06637342074840755 
0.01387966561311929 
0.3478391606953388 
0.1138990661677904 
0.2601617250728071 
0.1138990661677904 
-0.9113034360204539 
0.1254937576690033 
0.1254937576690033 
0.1254937576690033 
0.003880390485708814 
-0.2596903133459918 
-0.2243220163560461 
0.06952251997207301 
0.07314138254804431 
-0.05001804997630727 
0.4898116748856095 
0.003442162964722999 
0.2650073906072641 
-0.1330882263245577 
-0.002261589061719108 
0.0009091211136932421 
-0.004568922795115989 
-0.0001071881523758669 
0.006016300099333875 
-0.4418366147756261 
0.0005523701064292022 
0.2855330300158246 
0.005001532005202238 
0.06079878113050083 
-5.205848960660000e-05 
-0.0003953806002974447 
0.008981917703390819 
0.01869538887646419 
0.0008707238879823453 
0.003431109888745806 
0.0004979445154509955 
0.0004979445154509955 
0.002344660470005285 
0.0003010104960898065 
0.0003010104960898065 
-3.652995427205712e-05 
-0.002628946070557790 
0.6542681182995511 
0.1940632737816426 
0.0006718429222698211 
0.0006337707292690088 
0.6499717736696520 
0.1203098590426742 
-0.9087563327560045 
0.0002858372453045767 
3.049988097570114e-06 
0.04365054662480608 
0.1598559700524207 
0.01881327246812712 
0.01010724641422739 
0.7005255693935727 
0.2208612268966738 
0.008406804720919528 
-0.3837991771757601 
0.1858580419995884 
-0.1651859612875294 
-1.191529012486093e-05 
0.3012827986875039 
0.0001512054971867623 
0.0003010104960898065 
0.0003010104960898065 
0.1577801011796761 
0.002132307707411291 
0.4859727093462875 
-0.3991669832846738 
-0.3832689075350206 
0.003655544137687614 
-6.895286614539010e-07 
0.1350095941034612 
-0.06076661197557790 
-0.001797974797439074 
-0.003299090375299283 
-0.09204228493384528 
0.04397080618563248 
5.533785994203496e-05 
0.001309180626986275 
0.1367292265785147 
-0.04073404493945197 
-0.1405006331973699 
0.003616133678211511 
0.5176859530864402 
0.01551878059652007 
0.006226534728122965 
0.006226534728122965 
-0.7904925015187190 
-0.2851277973356445 
-0.0006932973256414326 
0.2502302625135590 
-0.1758684190169370 
-0.005160258149291878 
-0.2166583440266818 
0.5617800869286862 
0.06588835105308954 
0.5098163720841522 
0.01213110646961557 
-0.4172715866209648 
0.5796083338332326 
0.01193617665426621 
0.1171268278061289 
0.2623569548751711 
0.8113675308663316 
0.8140951217008434 
0.001424142367127865 
0.1420814892786636 
0.4620800364235356 
0.3867427138575746 
-9.782579312658248e-05 
-0.0001209504810443836 
0.8262191866720980 
-0.01754749407012865 
0.3976502229439258 
4.904650560431564e-05 
0.3454894485297827 
0.6752608392480166 
-0.2165543589955754 
-0.03374026712071395 
-0.2165543589955754 
0.001304080966491957 
0.01451151478157475 
-0.001168475851511389 
-0.0008184158290028500 
-0.001797074342737680 
0.03230765645522516 
6.666616382221374e-05 
0.2502302625135591 
0.04273247325706474 
-1.239714343777533e-05 
0.003473717887769424 
0.1529153219192196 
0.2591760777419557 
0.1228738446464253 
0.3484223097083600 
1.070222967584086e-05 
0.06518309533162168 
0.1906725015388798 
-0.2911133730789726 
-0.02423928252048082 
0.3250207120011162 
0.1472945117108310 
0.1663250570323937 
-0.004121464631052216 
0.1863212013423337 
0.1156537081180158 
0.03517529617960591 
0.0001985137221749140 
0.2099608471752287 
0.002828274911593519 
-0.3695830684901720 
-0.5307691844078034 
0.006227922629662690 
0.006227922629662690 
-0.1666615859948651 
-0.05363685967046652 
-0.05363685967046652 
0.07717761587431586 
0.09239671495670597 
0.4702878040774730 
-0.6757925683810936 
0.0005035894362923188 
0.0004826011969805962 
0.5473279339548067 
0.5472448280623852 
0.1976830855730160 
0.0001352434530973952 
0.09680145227091516 
-0.5960780696295119 
0.09680145227091516 
-0.1048458806308347 
0.06055456017701671 
0.01557813397241047 
-0.001035243461622133 
1.008409057259368e-06 
1.008409057259368e-06 
-0.6049059477760295 
0.1657935408564443 
0.1657935408564443 
-0.09204228493384528 
0.0002428372296013551 
0.02231608825647964 
0.07274029463862419 
-0.002422502219218516 
-0.2430534845981095 
0.002816304344029817 
0.1727624619279639 
0.0001815497031010944 
0.3458329799485240 
-0.09204228493384528 
0.08997054154570838 
0.02750695259753654 
-0.0003345145012578955 
0.007370100615590011 
0.06137773480551136 
0.0003912338684331989 
6.499428010790032e-05 
-0.02185983058478021 
1.005894248262710e-05 
0.06361763190817070 
0.05763776690516922 
-0.4212760469467948 
2.453429557842986e-05 
-0.1405006331973699 
0.3203602469827953 
0.01432426918787768 
0.01432426918787768 
0.4590593902956593 
8.769858598290532e-05 
-0.1261895342367019 
0.3863935932778373 
0.2097464615828369 
0.3094386614131687 
0.01401214275081746 
0.0001997209372462358 
0.0004312298556285432 
0.1173324625118105 
-0.3825684154786557 
0.3287943722312458 
0.2066615249655150 
0.06537543132682432 
0.3413812493097400 
0.5193681970252869 
0.7468826592459580 
0.7468826592459580 
0.2780041838734065 
-0.6783193589433303 
0.004504808311302586 
-0.3859712973116518 
0.0007987029207864623 
0.1279276007249462 
0.4005960917919866 
0.2063757434868439 
0.2946295078793293 
0.007344104046640490 
0.004597374389921615 
0.06982051592775397 
0.0002062293108103003 
4.552104510016546e-05 
0.2654436952944078 
0.1300341126575202 
0.09249069498019680 
0.004107376439340884 
-0.4265910471094695 
0.001298374553416319 
0.1774042076085388 
0.0007199563968815087 
0.2796779917673468 
-0.05880828959079436 
0.01455806880775664 
0.009413091769359717 
1.716722035715905e-05 
-0.1105981356917658 
0.01165169625010542 
-0.001308525816691637 
0.0001554583194103247 
0.02700798513402431 
0.001062273920621338 
0.001062273920621338 
-0.001955560924244836 
0.1218206843943898 
0.2231123794250045 
-0.004407221853212275 
-0.1043400787356538 
0.004361222820477000 
0.8018579186187091 
0.05168586309747652 
0.05168586309747652 
0.2718956278098918 
0.1533902640403823 
0.1639851705288804 
0.2254764946350046 
-0.3616091169675930 
-0.09204228493384528 
0.01679653315802559 
0.02116508678314462 
0.0005651039058460890 
0.0009054934423179208 
0.0005035905996941285 
-0.1195405699483803 
6.509101546090392e-06 
-4.288406990113501e-05 
-0.08118882671270344 
-0.0001455977264931780 
-0.4540796004307104 
0.02403215031721248 
0.02338139283169343 
0.0001948548131961570 
1.176804129217994 
0.0005731245646729661 
-0.6798518444491262 
0.001322451470315602 
0.08236660442502965 
0.01370844073443908 
-0.4432668723672429 
-0.003142832641023834 
0.001016679149044607 
0.001016679149044607 
0.2101913924530222 
0.2257022772444634 
0.2232992043794496 
-0.5628089221450809 
0.1294813503987140 
0.1140534692614363 
-0.1769440295683619 
0.1273030318054178 
-0.1405006331973699 
-0.008295284653487075 
0.008651910425226950 
0.2565336538746042 
-0.2757225542772196 
0.08656387086465338 
-0.05357432521425148 
-0.05369973958876966 
0.0009566389386269465 
-0.06889695668350665 
0.01806266753362898 
-0.5098979455528388 
0.0008391956593756964 
-3.929333308460056e-05 
0.0002256669227962148 
-0.3188627161244995 
0.07130958340805318 
0.03097717078114704 
-0.1405006331973699 
0.1067271500554538 
0.7615493791017602 
-0.09204228493384528 
0.003260690106021947 
0.5353211279629666 
0.2004187266241367 
-0.2277134185390880 
0.1211261834521695 
0.2171581847314825 
0.2475339537281275 
-0.1161986819817817 
0.003074355178256157 
-0.004397548521218517 
0.0001021471943522668 
0.09639223885806057 
8.169988475391383e-05 
0.0001099056446429097 
1.243453957632512 
0.0002319587821771965 
0.07717761587431586 
-0.0005156233078263419 
0.03558914164679328 
5.621217453644312e-05 
0.07782806495635010 
-0.004109657245556696 
0.004398832122387614 
0.0003756258110499474 
0.007501027426738674 
0.0003770925077662515 
4.540188805469975e-06 
0.05999543233985340 
0.09751126958223023 
-0.1314358418310788 
-0.1983435723019386 
-1.074015323505003 
-0.5343429250888906 
0.07587677738904723 
-0.04629991556250563 
-8.427417560281514e-07 
-0.0002396293490796543 
0.0002531618151316392 
0.0001860185948676993 
-0.1718533013173460 
-0.1446452604434735 
0.4263331499110521 
0.05243684231761924 
-0.0001804650438946659 
-0.05034028457339659 
0.05697185586757918 
0.0001334217825822377 
-0.001668684094257938 
-0.0002052526824780013 
-0.09204228493384528 
0.02693840832947725 
-0.09204228493384528 
0.05265792013075975 
-0.4571067502209241 
0.003198002499049844 
0.1099571552401472 
0.06702305806637769 
9.252154370735664e-06 
9.252154370735664e-06 
-0.05695386078118415 
0.3138473023773644 
-0.5073299917400970 
0.07783251548738430 
0.0003018422192466318 
0.0002407009718425991 
-0.08279727143928156 
0.002031856262952470 
0.4891961985809213 
0.004851157335946975 
-0.09566134567118187 
0.0003536471879094179 
0.1889047698559194 
0.003486997516663949 
0.0001865626338268927 
-0.3432339240985383 
-0.01876721435039783 
-0.1769440295683619 
0.0004730151229817265 
-0.1218335408652417 
-0.1218335408652417 
0.02679711112702663 
0.0003598600147932964 
0.0007939646700362137 
4.085851820930506e-05 
0.003455771346880872 
0.02139392016131685 
0.1683138766753533 
0.0004885344847342939 
0.1267956853794235 
0.06079955837119887 
0.0001941171572331440 
-1.435536229716722 
0.006383840824288691 
0.02010626077939572 
0.2141405412694937 
0.1838212374600451 
0.1676698670806813 
0.06617693855520050 
0.9257973501558089 
1.551869365834438e-06 
-0.1187590873420743 
-0.6740001263136600 
0.002201639574184114 
-0.0003594043268717291 
0.04034269561848533 
-0.7496413007494829 
0.001260346000413878 
0.3996318657968168 
-0.3841840492311404 
0.2292190161851793 
-0.1004682585974092 
-0.1117644164601501 
0.0002020758657307342 
0.01501357553707051 
-0.003924507434185212 
-0.003924507434185212 
0.1333978847816233 
-0.2630819650956881 
0.08182628531795949 
0.08182628531795949 
0.08182628531795949 
8.036947454992000e-05 
8.036947454992000e-05 
8.036947454992000e-05 
0.006684807394760862 
0.1275563943203933 
0.003168245940573487 
0.01960939045450956 
0.1938328410671782 
-0.09204228493384528 
0.003345884678196323 
0.08628081187738726 
0.04511366573762984 
0.03390523253631621 
0.1270082446966127 
-6.905671188697990e-06 
-6.905671188697990e-06 
0.08308238821816998 
0.0004272926801758322 
0.0003243521264281679 
0.1261858727693145 
0.3617162217327607 
0.003748741361961523 
-0.09409023037661200 
-0.001171214177203837 
-0.1214312488364728 
-0.008667230986318301 
0.04407051531979922 
-0.09204228493384528 
-0.6321015051885460 
-0.3736400071525045 
-0.2993424922952179 
-0.4350215117376651 
0.2340899712970783 
0.2935637654016183 
0.2708538807052610 
0.1905325074565305 
0.1353351157087299 
-4.212471081840409e-06 
0.0003202346816569856 
0.03517517530885718 
0.3866239495716767 
-0.5445547225440429 
-0.5445547225440429 
0.01749008409089042 
0.01555895289285845 
0.7463126717450538 
-0.0001288929738745001 
0.4078430422699024 
-0.09204228493384528 
0.3192715982645007 
0.1252450008356137 
0.01208288706317351 
-0.2223250095435801 
-0.001910113743454001 
-0.001910113743454001 
-0.001910113743454001 
-0.001910113743454001 
-0.001302420497132038 
0.002656685159024400 
0.001901545838970392 
0.06543031376391840 
-0.6414809781635747 
0.02476612317352788 
-0.05162857877298435 
0.1171223363186063 
0.005053318250841076 
-0.01746330970279837 
0.01428315557856842 
0.4410805850348213 
0.0002364821684985631 
0.0002364821684985631 
0.2999679697395791 
-0.0002396251002682666 
-1.191529012486093e-05 
-0.2492219087694590 
-5.517042229300561e-05 
0.6266129306532250 
-4.501833158147417e-05 
0.03829788338293525 
-0.0004746185001092010 
-0.3466654804848909 
0.0002887083519429547 
0.001738860040728752 
-0.6021251296632877 
0.3353683150584470 
0.06262539443782136 
-0.5737180090765802 
0.3365030212514402 
0.1279276007249462 
-0.001206831858992057 
-0.001206831858992057 
0.006889516601222969 
-1.787407697310917e-05 
-0.0006093470460306509 
0.04628470664779456 
0.0002344086809558952 
0.0002344086809558952 
0.0002344086809558952 
0.02231611599102911 
-0.09204228493384528 
0.01712593138750856 
-0.006115007203167971 
-0.3418670023221107 
-0.002403411137611576 
0.2270950067275207 
0.2431157929047378 
0.0002855620613041816 
0.002856672458860024 
0.0002725557529500396 
0.0007971319166215194 
0.1222489041780175 
0.6036241476555908 
-0.03621212300573815 
0.1149520261445758 
0.1603747494010398 
0.004785113434207591 
0.02242508009996692 
0.05893284042319612 
0.02249961029343343 
0.002691598792637526 
-0.1405006331973699 
-0.09204228493384528 
1.767500503081416e-05 
0.001169450704107827 
0.1724128862371165 
0.01280799793935734 
0.01280799793935734 
0.4696431388770158 
0.5097543484576723 
0.04537214352710824 
0.1183965978123387 
0.1205963621940515 
0.3952726115276006 
0.04623210768095205 
0.05109165024490803 
0.004530000543522750 
-0.7697127498039449 
0.0009802903179996693 
0.0009802903179996693 
0.4986629717209996 
0.2495580789970711 
0.2100632185187096 
-0.1788354508015798 
-0.4244890282379383 
0.0008177697214082123 
-0.09204228493384528 
0.04454206772322960 
0.1295579353638586 
0.1295579353638586 
-0.4831547373714963 
-0.001305860949915153 
0.001817409184815653 
0.001817409184815653 
0.006032183979262103 
0.004456092411050997 
-0.003145970417368066 
0.005806088310234456 
0.2003689797256509 
0.1875908116031919 
0.0005382044356699039 
-0.3381133366852978 
-1.663646113883564e-05 
-0.2587885284139431 
0.004858723396789117 
-0.0008839099942227278 
-0.0008839099942227278 
0.07390524200997213 
0.02268248500460659 
0.08394397317676362 
-0.1314371338262840 
0.2086923170543374 
-0.09219328647960559 
-0.09219328647960559 
0.1166224662743440 
-0.08885340604813115 
0.02204493048422429 
0.01387966561311929 
1.663957243433807e-05 
0.0002995783741612154 
0.0002995783741612154 
-0.8042641200150762 
0.001632513319059467 
-0.0001882757075002439 
-0.003924507434185212 
-0.003924507434185212 
-0.001239414339593236 
-0.2971281431364851 
0.0003849919089729640 
0.0003069096405342725 
-0.5015423773825746 
-4.453418345052536e-05 
0.002794355235745053 
1.152462751473339e-05 
1.450820191913403 
0.0008483976468897786 
1.445483894264196e-05 
-0.08783120654467760 
0.06283523546597719 
0.1979327203959625 
0.0002104863025809100 
-0.002159816557124833 
0.002255452802189113 
0.3049921013144604 
0.0002400393339965328 
0.002569503917509578 
-0.6876389483274532 
0.4586991979672662 
0.02145587993696050 
0.01414417467995833 
0.0001254990845906460 
0.2666745590215631 
0.2323954359696889 
-0.06085888601355965 
6.341169283360602e-05 
0.02727598444666520 
-0.0001327910382449027 
0.04903911130933101 
-0.2560084270027188 
-0.2116122778663076 
-0.07694107304550347 
0.01555895289285845 
0.0001292163045607773 
0.0001292163045607773 
4.592125011806357e-05 
-0.3478232649603182 
-0.1409774654351518 
0.3727142208712563 
0.007794686424209718 
0.004201124593251601 
-0.6586888597557868 
0.04322414689477198 
0.006684001692333901 
0.001099304880075295 
0.002749168920114366 
2.215191375961874e-05 
0.001129177462855418 
0.0008134846907754334 
0.003767936721687029 
-1.094867389146233e-05 
-0.08839393974372088 
-0.1405006331973699 
-0.09204228493384528 
-0.0001990689172571197 
-0.5620438075253579 
0.2152466181969046 
-0.8598199429165412 
0.5479121006390881 
-0.3037632158749243 
0.03147709242583244 
-1.797587525680964e-05 
-1.797587525680964e-05 
-0.2173793510015215 
0.1491654510384627 
0.04783330642745135 
0.1140747807402794 
0.0001258941894576511 
0.0001258941894576511 
0.0001258941894576511 
-0.0004873148177955048 
0.01335926599890113 
0.0003714856320248373 
0.0003714856320248373 
0.03638739217770496 
0.0003209138984729461 
0.0003209138984729461 
0.1862568695084581 
0.0002858372453045767 
-0.002959622610802340 
0.2608139257297153 
-0.5276264865812267 
0.7470494432085220 
0.7467169849492887 
0.0005418629549052032 
-0.09204228493384528 
-0.6850017578798291 
0.006463928881125305 
0.1229974720979410 
0.4847518176935227 
0.2053455787116471 
0.006283787520291911 
0.006283787520291911 
0.0006138310618700579 
0.4508443636408328 
0.2090719552091402 
0.0002315846257015144 
0.05858800086284307 
-0.09204228493384528 
-0.05290472139104475 
0.1524392036793076 
0.0003302795977348614 
0.0003302795977348614 
0.0003302795977348614 
0.07137908939459592 
0.04718717877166711 
0.002388939980651116 
0.002603502403630139 
-0.1670681674037725 
0.3364499021256963 
-0.1208586478067567 
0.0002377088987497699 
0.005397666399670405 
0.05202376898318279 
0.1616624676704464 
0.01605271571841593 
0.008381930096115837 
0.0009275637436748498 
-0.09204228493384528 
-0.1187476286933503 
-0.8484278799783695 
-0.0001926212824248042 
3.327879671980858e-05 
1.059788357222864 
0.2728109415651520 
1.728867800882474e-05 
0.0003602649108881274 
0.0001673104437788021 
0.0004992886625518353 
0.0006413492258283762 
-0.001305175208331490 
0.1926710443587003 
0.04816323747514403 
0.1000766677892867 
0.0009117746017855779 
0.02230579404631745 
0.002480505964317538 
-0.09204228493384528 
0.002054624359829528 
-0.7590971191240626 
-0.5147133139054257 
-0.2828741740111005 
0.0001315563103350953 
0.0001315563103350953 
0.03065904674591543 
-0.04109797506170163 
-0.04074346586645997 
-0.001460647965116228 
-0.8937287858984208 
0.1097413290833891 
0.1217463685625644 
0.003131439566987304 
0.07539826969920728 
0.0001695559527324219 
-1.058954970875529 
0.4310188633679108 
0.01308114090996976 
-0.0002245962110699085 
0.009601592048773634 
0.1819269790094795 
0.4457676529951765 
0.1252589805573526 
-0.01498881566652896 
0.0009834031890936154 
0.0008487965050266391 
0.0009070095937874746 
0.0001357251355659637 
-0.001796591036931913 
0.3819919082615798 
0.0004874356027463423 
0.0006371316996169014 
0.007055054180950432 
0.3840358417540676 
0.0004977207384875334 
0.08656535312126576 
0.03489340376916999 
0.06406796219135376 
0.1333084100577034 
-0.02328931950325610 
0.04596456782315995 
0.4278324576652473 
-0.4234745752448809 
0.01234875032445748 
0.05315149154525480 
-0.09204228493384528 
0.3256487698346493 
-0.002846595051885901 
0.1290576143499344 
-0.09204228493384528 
-0.009654689046753663 
0.001476026229033398 
0.001421271862343763 
0.4236935239246429 
0.02545159089660981 
0.4586991979672663 
-0.001365157148116729 
-0.1616504177709842 
0.1240401154982559 
0.1240746311735279 
0.007213841899323440 
-0.3534333392512893 
0.1193241969320644 
0.005736806841734415 
0.005805454009936767 
0.005731463671356522 
-0.05045342287954314 
0.001130541248044192 
0.1044403400302881 
0.07390616806451006 
0.01399435950985587 
-0.0001823136833589096 
-0.1454265520631841 
-0.005507871895303703 
0.1071936278602472 
0.1071936278602472 
-0.4609989758683035 
0.3378017077441907 
-0.0006277614780842747 
0.7466124281176105 
-0.2047603287599941 
0.005453535008792228 
0.001057719963663798 
-0.001060740308380016 
-0.001060740308380016 
0.04327211594356788 
0.04327211594356788 
0.02644967904053504 
0.01695150810525384 
-0.5071031027994065 
0.05056436265881929 
0.2179765052120055 
0.06803831136649224 
-6.551060609468738e-05 
-0.001162740514450206 
0.08260761501824816 
0.08260761501824816 
0.1635251503808594 
0.1623253589733374 
-0.0001966365875071567 
0.1391892141112698 
0.03416178211857412 
0.001238017423716300 
0.001502968720225572 
0.0003705624229727741 
-0.02602580859298976 
0.02939061805348130 
-0.0003750871742499144 
-0.0003750871742499144 
-0.0002413786323554762 
0.04397080618563245 
0.0004377686863576289 
0.07261162028856663 
0.0005103286512777601 
0.04359144157688494 
0.0001364518416342582 
0.002436337162426810 
0.002838975421519367 
-0.0003310355446396494 
-0.0003310355446396494 
-0.002133200841362306 
0.02948905968659863 
0.0002758921949401871 
-0.005732866868900220 
0.1565431362139959 
-0.0002046159265024772 
0.07138528596453449 
0.06006683512210616 
0.06006683512210616 
-0.03933829188893511 
0.1812995150494970 
-0.07519804701031870 
0.06707545409567071 
0.01632425673644046 
-0.7480250766801598 
-1.191529012486093e-05 
0.0004108773072765908 
0.1131610093320718 
0.1674227916747091 
0.1674227916747091 
0.1881329198285163 
-0.002747732799779796 
-0.1215785571918108 
0.06252043093124071 
-0.3839954448202400 
-0.001416331167290193 
0.04270382235118778 
-1.209375692320013 
-0.01511958933103127 
0.2501051057945437 
0.2501051057945437 
-0.001772093593237960 
0.05391440995739495 
0.003000277960464376 
-0.0004401594082845031 
-0.006054117019800323 
-0.006054117019800323 
5.143649459453426e-05 
0.6752646678586360 
0.6752608392480166 
0.003133522832287882 
0.06083479940935280 
-0.1322482317322872 
-0.0002052526824780013 
0.03914217563521933 
0.02617866651610337 
9.602858676412337e-06 
0.003271333804322747 
-0.04383783974939595 
-0.0006373103853243120 
0.002381569896582975 
-0.2465897605122990 
0.0001607082657101349 
0.01513712172694364 
0.01513712172694364 
3.974132875388134e-05 
-0.001656928912482904 
0.3421402182672774 
0.3528040430570219 
0.002848800245959936 
0.0008643230121692390 
0.003490980864804246 
-0.0003731767611068714 
-0.004756168421037501 
0.05214170698464129 
7.545113393098280e-05 
0.3683058979610873 
0.08071167849241981 
0.002099450675317059 
0.008479962372114545 
-0.006044029040000791 
0.002466157552783936 
0.002689456676735582 
-0.01782051837527952 
-0.1232062684908534 
-0.0002330636523821987 
0.1442169401077869 
0.1108321495286120 
0.1117044207604716 
0.002725561502249016 
0.2311570372411501 
0.003312706436733349 
0.1888245468061195 
0.02086471318316432 
0.08982220409359236 
0.1948541957469484 
0.1942606730296927 
2.044807682830997e-05 
0.0009410965602415042 
-0.09204228493384528 
0.3209127813709992 
5.078876995111743e-05 
5.078876995111743e-05 
5.078876995111743e-05 
0.2097466496661509 
0.4156743089170819 
0.1163415774325699 
0.2144401717201566 
0.01320528408304419 
0.01320528408304419 
0.2998077990528880 
0.0008918488228702663 
4.033094559119192e-05 
0.0001021882778379006 
0.2134217601023777 
0.05976714297203458 
0.0004790357871561724 
0.0008873583715480899 
-0.6914547025728213 
-0.8115071114369115 
0.05428179788521645 
0.0001042906329564896 
-0.04629991556250563 
-0.0001710190129339665 
-0.7586181503258148 
-0.4073334719322940 
0.1649661004880200 
0.0002512943255852450 
0.3556424448025668 
0.6988412172691352 
0.02984060979980860 
0.0003655455540744830 
0.5163258546828674 
4.132345961645991e-05 
0.02237653429152092 
-0.09204228493384528 
0.001213864860974962 
0.001213864860974962 
0.0006251855427815068 
-0.6518276295783944 
9.621800788216830e-05 
3.013903397765431e-05 
3.013903397765431e-05 
0.01422215128202270 
0.01422215128202270 
-1.312363156209019e-05 
0.003189630737209164 
0.3006359156778006 
0.002566225012238063 
0.0002152154763400135 
0.1430709795498596 
0.003269423920325298 
-0.001569205084119354 
-0.0001618849289285788 
0.003585935267295277 
0.001057811582936102 
0.01079481785049140 
0.01079481785049140 
0.0003108918272685373 
0.2714712941886200 
-0.9965748422729651 
0.4789933442133792 
0.4460522904942913 
0.6918446715568745 
-3.063068282604419e-05 
-3.063068282604419e-05 
0.3325454543237313 
0.001478899425920450 
0.1456002181973701 
0.1444137571277377 
0.07539826969920728 
0.01013190343831683 
-0.3540027642093441 
0.1185901470290092 
0.1750232163008281 
6.840291829281905e-05 
0.01340215805760628 
0.3001471459985242 
0.001048848643197502 
0.001528205599228328 
0.0002104834269849759 
-0.0002761291196477362 
0.002210787000887116 
0.002210787000887116 
0.3628527676341890 
0.05109935232003643 
0.004636167843874295 
0.005182997663829999 
-0.6109076223576663 
-0.09204228493384528 
0.07125734002098252 
0.05442660964310140 
-0.002002264957702333 
0.2480732764575535 
-0.1314358418310788 
0.0001435475555493564 
0.0001435475555493564 
0.0002776281177270726 
0.003756064172198819 
0.002408229093898680 
0.01454090158739947 
0.02557408488307517 
-0.9902961615379463 
8.208632959798980e-05 
0.04149709364906991 
0.04149709364906991 
-0.0008839099942227278 
-0.0008839099942227278 
0.0004132827654960972 
0.1046367785781473 
0.0007800826407216022 
0.2407418635044832 
0.2060365148200193 
0.0001175083821035834 
0.01518056135250271 
0.002156125930429680 
-0.09204228493384528 
0.0002263398388822308 
0.2304416455260360 
0.004223297954180348 
0.001319245537400117 
-0.09204228493384528 
-0.02226285197272401 
0.01704427379371941 
0.01294061609732476 
0.006768705704394221 
0.003037564774195456 
-0.05811021933285583 
0.02145587993696050 
0.003324990358784702 
-0.08062894823124465 
0.0005873710295392030 
0.008603729951912812 
0.008603729951912812 
-0.002044216668361417 
-0.5287167161474956 
-0.0009327264980811949 
0.004246634804527837 
0.1719624272303913 
-0.004300222584626778 
0.1112080871106787 
0.003312706436733349 
0.002862356906801567 
0.01166313553127949 
0.2811481266034324 
-0.1141922952901850 
0.002546397054519682 
0.01518056135250271 
1.680738953582995e-05 
0.1833736335508264 
-0.0002209048627720653 
-0.0002209048627720653 
3.682219889591466e-05 
0.0003553369571624141 
0.0002761452449215920 
0.1094610650330720 
-0.09204228493384528 
0.0006677608995827724 
0.008835740480904323 
-0.09204228493384528 
0.3756826049358731 
0.0001708621750006457 
0.1375393085736726 
-0.1416788920668159 
0.1481943990290035 
0.1481943990290035 
0.1068000971378966 
-0.1243170482391662 
1.695126574621586e-05 
0.08238778748422555 
0.001114892622483468 
0.7107499464871643 
0.001272736725242225 
0.2399896404167034 
0.7620446673702369 
0.0007313092390277588 
0.0007313092390277588 
0.7453210724615484 
0.1199619286215128 
0.02159932604366283 
0.04338498738291030 
-0.0002245962110699085 
0.1582073842549033 
0.4620800364235356 
-0.8088417565748794 
-7.442792757682707e-05 
-7.442792757682707e-05 
-7.442792757682707e-05 
-7.442792757682707e-05 
0.2200094161754853 
-0.0001071881523758669 
-0.04914202204384158 
-0.05810099034250064 
7.933824215456984e-05 
7.933824215456984e-05 
7.933824215456984e-05 
7.933824215456984e-05 
7.933824215456984e-05 
7.933824215456984e-05 
-0.01074862238727238 
-0.03841426365311052 
-0.06566984213837662 
0.02514077166881642 
0.05959417116094026 
0.1447413678613860 
0.0001557285845073017 
0.0002982714853929324 
0.0003441452473805658 
0.0002550949778992771 
0.2753949571093529 
0.02230116757592685 
0.09752608763574680 
-0.4124987211234384 
0.0002105745419752682 
-0.007323197098005664 
-0.0001238382886282498 
0.06296635818659270 
0.004541946361141092 
0.4419249518909181 
-0.2831288145239396 
0.4586991979672663 
-0.0001314752249083202 
0.01755794253330943 
-0.002236273214198110 
0.1877888575531413 
0.01294061609732476 
0.0001093509900009540 
-0.0008839099942227278 
-0.0008839099942227278 
0.2064550181127941 
0.3110405697913105 
-0.03292898438978697 
-0.05932873254111556 
0.03569188680169869 
0.3353678940994169 
0.01692151457690956 
-0.02756588251321692 
-2.253821386780379e-05 
0.001588019171364053 
0.006543223718563789 
6.693664197011559e-05 
0.0002700260768207221 
0.3005493421918000 
-0.001993899692815802 
-0.0005810959064547673 
-0.05364507569287477 
-0.4772833270162238 
0.0003602649108881274 
0.01045268739937251 
0.0007665185761173632 
-0.001091430530857533 
0.3664707213768155 
-0.01205870480735530 
0.001655759769388692 
-1.365040234115654e-05 
-1.365040234115654e-05 
0.005447769209589476 
0.0007682160033202325 
0.08189645125724045 
-0.0001865548035743786 
-0.09204228493384528 
-0.001496196631757389 
-0.4141022568742748 
0.0007680883632869284 
0.0007680883632869284 
-0.1701312243077571 
-0.1701312243077571 
0.02183190532210491 
-0.9967437513550949 
-0.02410339827245517 
-0.007465654225236093 
-0.002422755557191591 
0.0001253933132473433 
-0.1907618833031459 
0.03355730300054913 
0.002172909743039271 
0.002042962461021070 
0.0008285557449192092 
0.002966260638030889 
0.07554125736120382 
0.07554125736120382 
-0.2338998353635978 
0.001008895811423190 
-0.01703538791672095 
-0.3325031479545063 
0.1724524268937875 
-0.09204228493384528 
0.3375964683921115 
0.7239198301739124 
0.01516769753529683 
0.2549888774205323 
0.002321268527533396 
0.01531601896186621 
0.01886575004827781 
-0.01295874661666248 
0.0008659249310923313 
-0.002808347518475128 
0.2340876059766778 
0.0002297576187204034 
0.002123013972116812 
0.2972337743023902 
0.6863311422121626 
0.0008391956593756964 
8.769858598290532e-05 
0.001059216146127858 
-0.0001836246688660523 
-0.2154662429998132 
-0.0009388649450639458 
-4.133101078563460e-05 
0.1262258320934044 
-5.736259117810304e-05 
-0.0004054489170685608 
-0.1314066506889939 
0.007253279173883939 
0.007253279173883939 
-0.0005296772249649295 
0.02145587993696050 
0.0003496718575068514 
0.0003496718575068514 
1.451173213208552 
0.9019719078124617 
0.0002625881092187802 
-0.2167970609525700 
0.005447043296398939 
0.002748630568719694 
0.1858862071567052 
0.1460145763569715 
-0.0004978194234532036 
0.0001600635814710919 
0.3146014286683527 
0.1353165186826479 
0.1352191313375579 
-0.09204228493384528 
0.0005330414535039835 
0.006227922629662690 
0.006227922629662690 
-0.3289018244221835 
0.09907026536899619 
0.0005330414535039835 
-0.03387800329875668 
0.0001784791574025353 
0.003644741148950091 
0.003644741148950091 
0.003644741148950091 
0.0009549817860094098 
-0.4649184220709939 
-0.0002018504895842844 
-0.01714585314311523 
0.0002855620613041816 
0.01654378090264714 
-0.01441037806002373 
0.1527213560372232 
0.0001949829203087015 
0.0001722927748574138 
-0.0001994388672699466 
0.05246029190111024 
-0.0001962473236372150 
-0.0001962473236372150 
-0.0005343916383254321 
-0.0004394627726539550 
1.473947952644310e-05 
1.568586678795224e-05 
0.4909054890065177 
-0.1480180635704636 
0.004441368271797142 
9.339948568279460e-05 
0.001398820060038020 
0.002689224744213780 
0.0001876472068453489 
0.0001876472068453489 
0.1865302724420543 
0.4156743089170819 
0.2947141321025263 
0.0007685014006857706 
-0.09036335475757087 
0.0004248053225425385 
-0.09204228493384528 
-0.1633292338885298 
0.3202685858687127 
0.06863224485870079 
0.01267651104841469 
-0.003391907024691359 
-0.02591377005493762 
-0.02591377005493762 
-0.09204228493384528 
-0.8985905222789765 
0.0002020551514060933 
-0.09204228493384528 
-0.003649265988273055 
-0.0001908972581544152 
-0.0001908972581544152 
0.0002134584554162805 
0.1800191752185715 
-0.0001994388672699466 
-0.4738418759049917 
0.07717702874620640 
0.9856094590606955 
-8.201305198434182e-06 
0.001804927877429209 
0.1887739341929639 
0.0002081544095555007 
0.2647784246114164 
0.0003152257754731175 
-0.2784376877148646 
-9.966848517995624e-05 
-0.0006647788071608369 
0.0003312326094923284 
0.1733311118534158 
0.0003956898968400150 
0.04900428373471790 
-0.1495581808175291 
0.0002855620613041816 
-0.09204228493384528 
2.476310243875667e-05 
-2.238269892756559e-06 
-2.238269892756559e-06 
-2.238269892756559e-06 
-0.9902961615379463 
0.01190070302906893 
0.01995249313573681 
0.0001453215699311024 
0.0001453215699311024 
0.02812710849117247 
0.03615524754658250 
0.08400024276374475 
0.001945583634372800 
0.001945583634372800 
0.2254749865703141 
0.6008574945731401 
0.004206946336870563 
-0.4737590236709540 
-0.001828122232696631 
0.005282321482852021 
0.001584491230579861 
0.1041399009935228 
0.2867013899356715 
-0.08728048609283890 
-0.09204228493384528 
-4.321097650847053e-06 
0.05048886407706685 
0.0001173905278702154 
-0.4423393748688782 
-0.02239489936854712 
-0.0003858941058376408 
0.0005053656660048867 
0.05815517446744754 
0.2686316708934525 
-0.0002350002502478181 
-3.763025085336276e-06 
-0.3912234429848613 
0.2079168372527447 
0.2031138526231667 
0.1440421920509704 
0.0009946179173830334 
8.986892874104245e-05 
0.1682808593839384 
0.08431442854463243 
-0.2520338119472375 
-0.2520338119472375 
2.083753310096982e-05 
0.003431109888745806 
-0.9902961615379463 
0.04444304516086600 
0.04444304516086600 
-0.0009747175966421018 
-0.0001968281685015925 
0.2776879465930335 
0.3559221977928730 
-0.09204228493384528 
0.008144751342335990 
0.006072575028617138 
0.0001851652818567745 
0.1139695450682475 
0.006024607971397445 
0.1342108135855077 
2.918902256810035e-05 
-0.0006379529707390731 
-0.09204228493384528 
0.0006417644194689866 
0.05992258835126433 
0.0002156893361637778 
0.002899464535274637 
0.06697847507716624 
-0.09204228493384528 
-0.2647302803264751 
0.001750527066213123 
-0.8810390391487896 
0.1440200601717590 
-0.006190545721394952 
0.3021928515724643 
0.005555938753083997 
0.0003680707210043892 
-0.09204228493384528 
0.02772545949902872 
0.2182820053492099 
0.07827388571993713 
0.0001085394346815154 
0.001408407547504311 
0.0009252661520467184 
0.0007413433280639941 
0.001908251318592862 
0.0009970611610697247 
-0.8773287554801621 
-0.7430107660614583 
-0.001785759467471327 
0.005187020770532944 
0.0004672806906942052 
0.1675312079478946 
-0.0001994388672699466 
0.08172733733091614 
0.003140540838554888 
0.0008974600153998180 
-0.0001071881523758669 
0.0002217857065057215 
0.0002217857065057215 
2.083753310096982e-05 
0.0003166368315227361 
-0.09204228493384528 
-0.09204228493384528 
-0.005438342349289836 
-1.121567700621875 
0.01494436758171153 
0.2168874541088116 
-0.7366237346086184 
4.925356415073481e-05 
0.004492554887439388 
-0.09204228493384528 
0.0003557851893065180 
-0.3175538364794583 
-0.7052982360666893 
-0.0001917528722641511 
-0.0001917528722641511 
-0.4212001305317891 
0.7468836748659211 
0.7468836748659211 
-0.0001599564221456856 
-0.0001599564221456856 
-0.1538845704905022 
-0.1405006331973699 
0.06101554491548944 
0.0001499257936004675 
0.0001063638332085713 
0.01387966561311929 
0.0001106449553926916 
0.04033241262690616 
-3.231813787383682e-05 
-0.1944273217220567 
0.0002113746492702546 
0.0002113746492702546 
-0.05618860119896348 
-0.1090659537039867 
-0.09204228493384528 
-0.0001087108050277909 
-1.025880444658045 
-0.001171214177203837 
0.0003599675111036479 
0.001236111769559208 
0.001236111769559208 
0.001236111769559208 
0.001236111769559208 
-0.09204228493384528 
-0.3731642254749598 
-0.0001038458137241727 
-0.001154808389477074 
0.2011326762038656 
2.083753310096982e-05 
0.1703796507029913 
0.001574523604712236 
0.07138141321484096 
0.0003495495141637472 
0.009922631275358296 
-0.09204228493384528 
0.06278168704917675 
0.06278168704917675 
0.02976570522773122 
0.001552160300993997 
0.05049943188733622 
0.1951435998216072 
2.215191375961874e-05 
0.001554458863376988 
0.001480046975717842 
0.07690903426197059 
-0.3175538364794583 
0.1905325074565305 
-0.0001394111996855300 
-0.0001993748159732578 
0.0006749208600367637 
0.0007974519136291190 
0.0006749208600367637 
0.0006749208600367637 
-0.0008209715832038389 
-0.0008209715832038389 
-0.1940229946127692 
0.0003252495376667940 
-1.440886891481967 
0.2391654788345633 
0.0009206484834131941 
-0.4435627747686349 
-0.09204228493384528 
8.469642860291094e-05 
-0.001025290578234220 
-0.09204228493384528 
-0.09904603788836493 
-0.09204228493384528 
0.1459397487358007 
-0.2339241800686278 
0.1235120382374913 
-0.8854657418511810 
-0.2937914627851307 
-0.1008421003163271 
8.196055979649170e-06 
4.365153848061811e-05 
0.004783270830420849 
1.456888860335672 
0.07703921472988312 
0.07703921472988312 
-9.379416079209947e-05 
-0.06130554020677476 
0.02152665881435003 
-0.0006780925780452470 
0.4945837687095303 
-0.09204228493384528 
0.04405878817576717 
0.006728708574450916 
0.0001298078133590908 
-0.05363685967046652 
-0.05363685967046652 
0.06824727704389455 
0.002023414154252072 
-0.4613409782648128 
-0.0005755910693949113 
0.1254084257136787 
-0.002611814829295918 
0.01999495028019795 
-0.02711583556577073 
-0.09204228493384528 
0.2235713160945569 
0.1196296120454718 
7.345868007414184e-05 
0.02940600712718553 
-0.1405006331973699 
0.002400332481900392 
-0.003118351959906187 
0.1673839048664680 
0.0004046379100692051 
-0.1010599526729170 
-0.1010599526729170 
-0.1582931856946999 
0.003021610544742991 
0.003021610544742991 
-0.01300649347659342 
-0.005128949899418256 
-0.09204228493384528 
-0.1459689734585320 
-0.05364186211313006 
-0.05363188391614862 
0.0003500600225085386 
-4.321097650847053e-06 
-0.1229283936479818 
0.002499326398556556 
0.2565321414509047 
0.0001241569674964208 
0.1645042530578871 
-0.1041310438409958 
-0.1907618833031459 
0.2157675589811477 
-0.0007120866894675841 
0.0001860185948676993 
0.1274184424654377 
0.005493367649888416 
0.4396961193940009 
0.0001482577325244713 
0.0001868024461306251 
-2.140478076171836e-06 
0.1059600245249475 
0.2952638612426884 
0.1160271436815885 
-0.09204228493384528 
-0.0007060544054586915 
-0.002073166187111444 
0.08391118108804340 
0.3822004469179804 
0.3822004469179804 
0.3822004469179804 
0.009531355794585389 
-0.0008839099942227278 
-0.0008839099942227278 
0.0001317159590645869 
0.0001317159590645869 
0.01262371156070388 
0.01262371156070388 
-0.06085888601355956 
0.01014120989331000 
-0.1314358418310788 
4.085851820930506e-05 
-0.001543022794525620 
3.235250469134051e-05 
0.002651102497032082 
2.083753310096982e-05 
-0.3623570826150244 
0.0001133781291418231 
0.0001133781291418231 
-0.3926001860633017 
0.002727590834511946 
-0.1405006331973699 
-0.09204228493384528 
0.02249033888132773 
0.08518189448138600 
9.738734509000507e-05 
9.738734509000507e-05 
9.738734509000507e-05 
9.738734509000507e-05 
0.06163892642753619 
0.06163892642753619 
0.06435381722194368 
-0.2842566137508060 
-0.09204228493384528 
0.04816346075704858 
-0.09204228493384528 
0.01169147911438421 
-0.0003177761719287474 
0.001576091568211103 
0.002728385952935859 
0.001576091568211103 
-0.8267663650746145 
-0.8267663650746145 
0.1719251834499973 
0.2297364375610755 
-0.05353476216089541 
-0.05373840104281855 
0.1358748172383671 
0.1358748172383671 
-0.6679112156151544 
-1.215096834465041 
0.0003279762773553969 
0.0003279762773553969 
0.0003279762773553969 
0.0003279762773553969 
-0.1769440295683619 
-0.01235776617187845 
-0.09204228493384528 
0.001015238760343116 
-0.0006578830049242956 
0.001176484204701461 
-7.790757345517237e-05 
3.903290549422487e-05 
0.6447462537060992 
-0.09204228493384528 
0.07874607073455368 
0.001270554076492403 
0.0003598600147932964 
-0.1405006331973699 
0.005447769209589476 
-0.004308610211771750 
-0.002154305105885875 
0.2114725792577166 
0.5212718314354612 
0.2121001267238078 
-1.684080695664199e-05 
0.06149355374156911 
-0.09204228493384528 
-0.0002067689911161636 
0.0007415025006858528 
-0.0009404503698496897 
-0.0009404503698496897 
0.001067829234242323 
0.007277303911169082 
0.0006534244645982663 
0.0006534244645982663 
-0.0008084299936190625 
-0.04472736796488355 
0.08220070781226095 
0.1722286481228276 
-0.0001888610398118677 
-0.0001888610398118677 
0.0003216786425177743 
-0.2044046927246313 
-0.1137044331408390 
0.0002139103042741578 
0.0003405716451904912 
0.0002002393472851903 
0.0002002393472851903 
-0.2937914627851307 
-0.0004443970369806852 
-0.0004443970369806852 
0.1315700948406038 
0.0003945516873396364 
1.301431773459845e-05 
0.01011173386429630 
0.002270591380837245 
0.0008974600153998180 
0.001982131900792107 
-0.08346523586331986 
-0.08346523586331986 
0.1174048951501934 
0.1174048951501934 
-0.6202159201131027 
-0.1910058845676938 
0.02257395335125160 
0.02257395335125160 
0.0003189089371239103 
-0.0005590007394409183 
0.001909091944050948 
0.001909091944050948 
-0.09204228493384528 
0.1280980294496265 
0.1281572205057012 
0.04987903795529432 
-0.09204228493384528 
0.0009871151937583995 
-0.08101666157549464 
-0.1405006331973699 
-0.2700515496445823 
0.0001401712166946118 
-0.09204228493384528 
-0.001062256981652072 
-0.001062256981652072 
0.01400255148555006 
-0.09204228493384528 
8.273800885543291e-05 
4.268050911638636e-05 
-0.0001994388672699466 
0.2114725792577166 
0.0007977346997320053 
-0.0002226578670305364 
0.002945890671106035 
0.1698977434853761 
0.02614687703460780 
0.0005382044356699039 
0.1037380857263605 
-0.2654105153272177 
-5.919105607480107e-05 
-0.09204228493384528 
-0.09204228493384528 
0.006013821340307672 
0.1712633087605122 
0.0008583072740153483 
-1.065082174731407 
-0.09204228493384528 
-0.09204228493384528 
0.0002782191521347724 
-0.02741718988155722 
-0.09204228493384528 
-0.006102946968342877 
-0.2052204170111731 
0.1687327959727775 
0.0002545248121949018 
0.0002545248121949018 
0.0003502558754339055 
0.0003502558754339055 
0.0001415090687928865 
0.06809152114680429 
0.001022197025460020 
0.001022197025460020 
0.0006610219016751737 
0.1252589805573526 
-0.05437370062854983 
-0.09204228493384528 
-0.0004383852382125602 
0.08972854261060416 
0.03509184167992571 
0.01131363732105190 
1.895780378401192e-05 
-0.09204228493384528 
0.02772545949902872 
0.0001000074924282335 
-0.09204228493384528 
0.1120057165494967 
0.06617538668583466 
0.0003331879301543386 
-0.09204228493384528 
0.002097864136184884 
-0.002305825193196115 
0.02756809888708676 
0.03776195994186780 
0.1627337554263103 
0.1693951525978869 
4.846992494404749e-05 
-0.1235827426762176 
0.002100693932895188 
-0.2394102773758660 
0.008833158000753821 
-1.423341769887110e-05 
-1.363875542919658 
-0.0008839099942227278 
-0.0008839099942227278 
0.01552862834128020 
0.001276354456024503 
0.001276354456024503 
0.1375393085736726 
2.083753310096982e-05 
4.781158749903845e-05 
-0.0007172037345113123 
-0.0007172037345113123 
-0.0007172037345113123 
0.0002855620613041816 
0.0006943081712856551 
0.0006943081712856551 
-1.263555182728565 
0.0007091017470883565 
-0.09204228493384528 
0.0001188497442339535 
-0.008274532160243613 
2.795741226808100e-05 
2.795741226808100e-05 
0.2019849825128327 
4.856957923930164e-05 
-0.6881653863450939 
-0.3418096433884318 
0.007108485887688461 
0.0002920270069284415 
0.07539826969920728 
0.0003639632856777352 
0.9508337914811470 
0.1267956853794235 
9.518987915371253e-05 
-0.09204228493384528 
0.1366893082329765 
-0.0009747175966421018 
0.03234073924918714 
-0.02959684761295300 
-0.01696490742562423 
-0.9335950642055769 
0.001180485270622214 
0.0001214656950983713 
-6.301162356148309e-05 
-0.0001292453559539484 
-0.0001292453559539484 
0.06305938923790609 
0.06305938923790609 
0.06305938923790609 
6.125436347935180e-05 
0.09051640040470296 
-9.213002524972774e-05 
0.2714552083350540 
0.003422007372120519 
0.001368179873665592 
5.053134893634130e-05 
6.420817030479833e-05 
0.001053517933545133 
-0.0002052526824780013 
7.092707666491691e-05 
-0.2268080296346471 
-0.0002232991239516457 
1.615828928890587e-05 
-0.09916584633757317 
0.001144924963573042 
-1.003469853438095 
-0.0002036388819231551 
0.0003906934151867586 
0.0003906934151867586 
4.540188805469975e-06 
0.8368439674551137 
0.4472349877349613 
-0.0001000746087137766 
0.07539826969920728 
7.545113393098280e-05 
0.001099304880075295 
0.02557408488307517 
0.004335403281737963 
0.0004069399498044990 
0.0004069399498044990 
1.002424134187774 
0.2521487208662593 
-0.06531453089594248 
-0.04240128773867507 
-8.951308886235176e-06 
0.0001763788914745417 
0.0001763788914745417 
0.0001763788914745417 
-0.1980165290810537 
-1.168208962179723 
0.004143896321192875 
0.004143896321192875 
-0.09204228493384528 
-1.088095413019581 
-0.001856093030944721 
8.074996667329777e-05 
-0.1339607181256059 
-0.09204228493384528 
1.302082590280620 
-0.09204228493384528 
-0.0003201884746207468 
-0.09204228493384528 
0.7503500916242547 
-0.07643976370018499 
0.1157889213611615 
7.048294822693018e-05 
-0.0005373572820361640 
0.0002921136177921861 
5.137383918691073e-05 
-0.03186590235919744 
7.425199507592414e-05 
0.01294061609732476 
0.02145587993696050 
0.05422016939710815 
0.05422016939710815 
0.0002595436523491622 
-0.8833558000874140 
0.3831282802490416 
0.3831282802490416 
-0.003425253953610413 
0.02695059202692706 
-0.0007919595762716044 
-0.0007407598809885475 
-0.0007919595762716044 
-0.0007919595762716044 
-0.09204228493384528 
4.485987518550017e-05 
-0.1105981356917658 
-0.0002052526824780013 
-0.1405006331973699 
0.1609372154428952 
0.06726438785207564 
-4.452554931547458e-05 
-0.09204228493384528 
3.926724284998885e-05 
-0.09204228493384528 
-0.8702483711324992 
0.2591783892903947 
-0.09658306355340701 
-0.0009446085774122393 
0.0002155410915248722 
0.0002155410915248722 
0.2555940442051742 
-4.939317144722541e-05 
0.0001666618952449157 
-7.830501694286930e-05 
-7.830501694286930e-05 
-0.3608213347662789 
0.001109574460141254 
0.1338571012692669 
0.02993479954296499 
0.1712633087605122 
-0.1952272195929706 
1.454308046638945e-05 
-0.06644633377934527 
-0.0001071881523758669 
-1.370243898326006e-06 
-0.1405006331973699 
-0.0007380669864457566 
-2.141419144061128e-05 
5.957197089676443e-05 
0.0003196337359314005 
0.0003196337359314005 
8.966315936326194e-05 
0.001465577083837043 
-1.191529012486093e-05 
-0.4418366147756261 
-0.09204228493384528 
0.0004579958384111198 
4.555703032821951e-05 
4.555703032821951e-05 
-0.9902961615379463 
0.002358512382126438 
0.001835938157368835 
-0.6375398480436408 
-0.05363685967046652 
-0.05363685967046652 
-0.0001994388672699466 
0.9220049871111827 
0.002562555932032555 
0.002562555932032555 
0.0005317792595154591 
-0.0002983906085983002 
3.284011814804117e-05 
3.284011814804117e-05 
-0.004844479850801309 
-0.004844479850801309 
-0.2639269993116168 
-0.0001991729048738732 
-0.1581517359916644 
0.2187225930292482 
-0.09204228493384528 
0.3495783465384126 
0.0001561643502848820 
-0.05363685967046652 
-0.05363685967046652 
-0.09204228493384528 
2.829364164159506e-05 
-0.09204228493384528 
-0.0001994388672699466 
-0.1824190663891305 
0.007667290701212704 
0.01294061609732476 
-0.09204228493384528 
0.006482392276752131 
-0.0004269596320556330 
0.1371105074451654 
0.0001435475555493564 
0.0001435475555493564 
0.0001784791574025353 
-0.0001402300065258770 
0.0001843269020489279 
-0.006008307741244254 
-0.09204228493384528 
3.011130733540448e-05 
3.011130733540448e-05 
-0.05578725696229286 
0.01248998251706097 
7.263754052073985e-05 
0.0003146823762986376 
0.0008159045006625331 
0.0008159045006625331 
0.0001329074176358725 
-0.0001759020591420896 
-0.09204228493384528 
0.3197259533757466 
-0.0001349325536558905 
-0.001171214177203837 
-0.2275419252054059 
0.01110338504791193 
0.01100984059433801 
0.1612192799821425 
-0.002683239930315030 
0.0001224791253380548 
0.001098932085375163 
-0.001098539139560488 
0.02963848651340232 
0.06816403548452944 
4.540188805469975e-06 
0.3289731611672703 
0.1270082446966127 
-2.175693070965067e-05 
-0.2817310131960925 
4.926661179856804e-05 
-0.1405006331973699 
0.0006385623855154330 
-0.09204228493384528 
-1.567449162764814 
0.0001292163045607773 
0.0001292163045607773 
0.002948901749652502 
0.002948901749652502 
3.345691312451593e-05 
0.03935208487705466 
0.02946178300349229 
-0.001040168118895889 
-0.0002941074732544363 
-0.0002941074732544363 
0.6863311422121626 
-8.524685834889241e-05 
-0.09204228493384528 
-0.06939406467772065 
0.1220726221718240 
0.1220726221718240 
0.0002124653860388414 
-0.9902961615379463 
3.752881144435839e-05 
3.752881144435839e-05 
0.002756759098088995 
0.0001288641815485884 
-8.242853739786685e-08 
-8.242853739786685e-08 
0.004769899113204075 
0.003056323928471380 
-0.09204228493384528 
-0.2326974034785442 
-0.09204228493384528 
-0.0004335262215178062 
0.0008866952339441759 
-0.09204228493384528 
3.926724284998885e-05 
-0.006939495874998578 
-0.09204228493384528 
-0.09204228493384528 
0.01294061609732476 
-0.09204228493384528 
-0.1824190663891305 
0.1648255823087836 
0.08551273760322274 
-0.09204228493384528 
-0.0008839099942227278 
-0.0008839099942227278 
0.004566229942542052 
1.484936613773138e-06 
-0.09204228493384528 
-0.0002954327160794954 
-9.619559637565257e-05 
-3.483846059845014e-05 
0.3585856374959907 
0.3495783465384126 
-0.09204228493384528 
-9.098754153857744e-05 
-0.09204228493384528 
0.001810423216315909 
0.7382097673428087 
0.0006413492258283762 
0.002675394582250389 
0.05120194078054175 
0.04870369162857273 
0.04870369162857273 
0.0007421785801790718 
0.1684945049613922 
0.0004896116411361384 
0.001317864186965544 
-0.09204228493384528 
0.0001215224560860357 
-1.191529012486093e-05 
1.808963729816068e-05 
0.0001340580670400069 
0.01014078083364984 
3.470059426284229e-05 
0.0005841448212669639 
0.0005841448212669639 
-0.1811494310617764 
-0.1983058679090765 
0.01294061609732476 
0.07782806495635010 
0.07678857671294488 
-0.005413592462909609 
0.08890267830492148 
0.03970415025183745 
-0.0002297530648790037 
0.003973101251665371 
0.003973101251665371 
0.0004997215346590736 
0.0004997215346590736 
-0.2553712122823021 
-0.0002103857280554650 
-0.003797742283129848 
-0.1798941900946035 
-0.8174084270079383 
-0.09204228493384528 
0.001388788708190017 
0.2144401717201566 
0.08656535312126576 
-0.06362252221943900 
-0.01511061406986418 
0.001781944161920773 
-0.09204228493384528 
0.005011211119171005 
-9.015002723362759e-06 
0.07685627007449522 
-0.0007892648449924980 
-0.1074025536898649 
0.06875786314505776 
-0.9902961615379463 
-1.057136239647642e-06 
0.0006677608995827724 
-0.004100254124522876 
0.4332218742391203 
0.005581591837053124 
0.005581591837053124 
0.0003143166428443006 
2.981272145643308e-05 
0.01213110646961557 
0.0005552772104282967 
0.0005552772104282967 
0.0005552772104282967 
-5.524368011093551e-05 
0.0002128190173323291 
0.02812710849117247 
-0.09204228493384528 
-0.09204228493384528 
0.01294061609732476 
0.2311574693913552 
0.1178819811648238 
7.368458421254205e-06 
0.09409988612357466 
0.09409988612357466 
-1.009888793837817 
-6.940555151199377e-05 
-0.2233676444783485 
0.0004977207384875334 
-0.09204228493384528 
-0.002132841612108599 
0.0005999400761840004 
-0.01227818750115989 
-0.8344015964001886 
0.5016534759218664 
-0.0001994388672699466 
-0.02365954153159960 
2.332747285678762e-07 
1.976180511545857e-05 
0.02812710849117247 
-0.9902961615379463 
-0.0002226524572313351 
-0.004304647628404617 
-0.05363685967046652 
-0.05363685967046652 
-0.09204228493384528 
0.02389165085697357 
0.0003336881419141450 
0.0003336881419141450 
-0.09204228493384528 
-0.09129252299536467 
0.002526402222995606 
0.01291368045921407 
-0.09204228493384528 
0.0002855620613041816 
-0.2674249475841737 
-0.0007036365232793477 
-0.09204228493384528 
0.0008129969137966026 
0.02731958707889643 
-0.09204228493384528 
-0.3731642254749598 
-0.2674249475841737 
0.004735981117208783 
0.07714821918179547 
-0.0007552959813634364 
-0.9649777616573836 
-0.0001767381342090363 
-0.001856727477640080 
-0.09204228493384528 
-0.8058966333341357 
6.416626818787268e-05 
0.002013018479246447 
-0.002285303525790637 
-0.06687330216834028 
-0.4864478463955625 
-0.0004131165091857027 
-1.253349405382491 
0.1262258320934044 
0.02975145561414440 
0.02975145561414440 
-0.3896089797201524 
-0.002257854612378412 
-0.002257854612378412 
-0.09204228493384528 
0.01758072813573307 
0.01518056135250271 
0.6256781326573644 
5.309772255924240e-05 
0.0001482577325244713 
-0.9902961615379463 
0.07261101590076219 
0.0006430647603503684 
0.002610950092750976 
0.5785574424731268 
0.01297221187532174 
-0.2937914627851307 
0.2013373207929064 
-0.09204228493384528 
-0.004295576556614666 
0.004274976665657848 
-0.005967261669497083 
0.0001415090687928865 
9.236595796333049e-05 
-0.09204228493384528 
0.5326894392877943 
-0.1405006331973699 
0.004120781115681162 
-0.07379991384404515 
0.001270554076492403 
-0.03859462988744247 
-0.03859462988744247 
0.0003820451101498163 
0.0001250140209562829 
0.0001250140209562829 
-0.001822564528928968 
-0.03562945753926720 
-0.09204228493384528 
-6.485360601012976e-05 
-1.299441693515321 
0.01186867727144689 
0.01186867727144689 
-0.02902577685009704 
-0.09204228493384528 
-0.0008067918559214796 
-0.0001994388672699466 
-0.09204228493384528 
-0.09204228493384528 
0.5466573640727262 
0.001538663637434928 
-0.1495581808175291 
-0.09204228493384528 
6.864716820234978e-05 
0.0006677608995827724 
-0.0001233490230110713 
-0.0001233490230110713 
0.01291368045921407 
0.07241223806458670 
0.0002058915101004656 
0.0001761414672544229 
0.0001761414672544229 
6.046047075098264e-05 
-0.09204228493384528 
0.0003599675111036479 
0.0003045154975337877 
